{
    "fc1.weight": [
        [
            -0.03362274914979935,
            0.02141847461462021,
            -0.007347332313656807,
            0.018169425427913666,
            0.004964891821146011,
            -0.004373006522655487,
            0.009905748069286346,
            0.001761849969625473,
            0.01304386556148529,
            -0.013917893171310425,
            -0.0026038847863674164,
            -0.0032152608036994934,
            0.005176570266485214,
            -0.00014267116785049438,
            0.031220238655805588,
            0.011113934218883514,
            -0.013300223276019096,
            -0.021570049226284027,
            -0.005986273288726807,
            -0.015405025333166122,
            -0.011444590985774994,
            0.001710057258605957,
            0.02129027619957924,
            0.019412025809288025,
            -0.034912534058094025,
            0.0221400186419487,
            0.009977281093597412,
            0.03387698158621788,
            0.02357356622815132,
            -0.03254063427448273,
            -0.03395744413137436,
            -0.017226148396730423,
            0.031361136585474014,
            -0.00594889372587204,
            0.015284266322851181,
            -0.0165968369692564,
            0.03504350408911705,
            -0.015110660344362259,
            0.026783030480146408,
            0.00042291730642318726,
            -0.01881491020321846,
            0.01835767552256584,
            -0.01895786263048649,
            0.01050373911857605,
            -0.010312758386135101,
            -0.003915514796972275,
            -0.034335292875766754,
            -0.017027920112013817,
            0.019379787147045135,
            -0.00868133082985878,
            0.03557319566607475,
            0.028628159314393997,
            -0.0016722716391086578,
            -0.02383868396282196,
            0.021748650819063187,
            0.011084184050559998,
            -0.023086421191692352,
            0.023198023438453674,
            0.02168220654129982,
            0.0316748209297657,
            -0.02001998759806156,
            -0.005878785625100136,
            -0.0006918534636497498,
            0.005216337740421295,
            -0.027104225009679794,
            -0.025343656539916992,
            0.0794774740934372,
            0.05167397856712341,
            0.07749424874782562,
            0.06208481267094612,
            0.07177537679672241,
            0.007853168994188309,
            0.012985695153474808,
            0.017703954130411148,
            -0.03307543322443962,
            0.01797683909535408,
            -0.025111544877290726,
            -0.026946749538183212,
            0.002171941101551056,
            -0.006085971370339394,
            0.020975857973098755,
            -0.020683417096734047,
            -0.03174935653805733,
            0.025991741567850113,
            -0.0052957795560359955,
            0.02008775994181633,
            0.011481590569019318,
            -0.02678126096725464,
            0.007174938917160034,
            0.008578449487686157,
            -0.023912809789180756,
            -0.01694544032216072,
            0.01217770203948021,
            0.06644595414400101,
            0.044856809079647064,
            0.049237463623285294,
            0.09275887906551361,
            0.05344083905220032,
            0.08018419146537781,
            0.015464399009943008,
            -0.02308597043156624,
            -0.030372485518455505,
            0.034281741827726364,
            -0.05818898230791092,
            -0.03557322546839714,
            -0.052652742713689804,
            0.01148652657866478,
            0.026677094399929047,
            0.03386480733752251,
            -0.02369932271540165,
            0.004465319216251373,
            0.026652049273252487,
            0.02587268128991127,
            0.022187087684869766,
            -0.02584710344672203,
            -0.02571800909936428,
            -0.02159898728132248,
            0.004486728459596634,
            0.03559517487883568,
            0.0374932661652565,
            0.07908454537391663,
            0.04028615355491638,
            0.02647445537149906,
            0.052462879568338394,
            0.0806310698390007,
            0.0932050347328186,
            -0.08222646266222,
            -0.05229612812399864,
            -0.029230117797851562,
            -0.03638032451272011,
            -0.037796322256326675,
            -0.03467480465769768,
            -0.037464626133441925,
            -0.050829507410526276,
            -0.02442214824259281,
            -0.029991377145051956,
            -0.016365021467208862,
            -0.004158783704042435,
            -0.0218911524862051,
            0.013066202402114868,
            0.011053137481212616,
            -0.008086975663900375,
            0.013726457953453064,
            0.011542312800884247,
            0.021804962307214737,
            0.024051561951637268,
            -0.012094741687178612,
            0.09494683891534805,
            0.026510098949074745,
            0.035504050552845,
            0.007186803035438061,
            0.03706728667020798,
            0.0391891747713089,
            0.04477673023939133,
            -0.03464915603399277,
            -0.07171167433261871,
            -0.08672952651977539,
            -0.04631335288286209,
            -0.04861990734934807,
            -0.036922771483659744,
            -0.07853571325540543,
            -0.05231110379099846,
            -0.07305623590946198,
            -0.06807751208543777,
            -0.08851480484008789,
            -0.01627717725932598,
            -0.010937776416540146,
            0.01527269184589386,
            0.006524622440338135,
            0.008822016417980194,
            0.03564661368727684,
            0.03480812534689903,
            0.024358827620744705,
            0.0011372677981853485,
            -0.02470683678984642,
            0.02791106328368187,
            -0.004242319613695145,
            -0.09337228536605835,
            -0.012720465660095215,
            0.01610909216105938,
            -0.006774885579943657,
            -0.060002170503139496,
            -0.0308876633644104,
            -0.09754626452922821,
            -0.06126711890101433,
            -0.07936583459377289,
            -0.0472755990922451,
            -0.0738019123673439,
            -0.07682903110980988,
            -0.05803123116493225,
            -0.03420050069689751,
            -0.08517570793628693,
            -0.04328180477023125,
            0.022944334894418716,
            0.03493561968207359,
            -0.0249975323677063,
            0.008649639785289764,
            -0.026408102363348007,
            0.03049108013510704,
            0.04619785025715828,
            0.08156422525644302,
            0.06111491098999977,
            0.057270124554634094,
            -0.06117159500718117,
            -0.05398085340857506,
            0.005513922777026892,
            -0.002974811242893338,
            -0.08161570131778717,
            -0.03735928609967232,
            -0.06680101156234741,
            -0.04418998956680298,
            -0.03790416568517685,
            -0.033653732389211655,
            -0.08582715690135956,
            -0.07329384982585907,
            -0.028564410284161568,
            -0.08725608140230179,
            -0.027653634548187256,
            -0.08814332634210587,
            -0.0852116271853447,
            -0.04259428381919861,
            -0.025660324841737747,
            -0.008182168006896973,
            0.025981854647397995,
            0.028288889676332474,
            0.03377699479460716,
            0.05280458927154541,
            0.03229232877492905,
            0.095216304063797,
            0.05244356393814087,
            0.045357540249824524,
            -0.05128203704953194,
            0.03507392480969429,
            0.04402768611907959,
            0.01368064247071743,
            -0.08838391304016113,
            -0.0893881767988205,
            -0.06318243592977524,
            -0.045053523033857346,
            -0.06711075454950333,
            -0.07816458493471146,
            -0.05923818051815033,
            -0.09362365305423737,
            -0.08529581129550934,
            -0.0838288739323616,
            -0.030642494559288025,
            -0.028571881353855133,
            -0.07218419760465622,
            -0.05845146253705025,
            -0.04412547126412392,
            0.004279192537069321,
            -0.017884021624922752,
            0.020597800612449646,
            0.021954793483018875,
            0.05798180773854256,
            0.05565512552857399,
            0.09250681102275848,
            0.09127084910869598,
            -0.08023740351200104,
            0.09496591985225677,
            0.06888806819915771,
            0.036329999566078186,
            0.05664566904306412,
            0.0022432939149439335,
            -0.027055617421865463,
            -0.0830138549208641,
            -0.049953561276197433,
            -0.049179647117853165,
            -0.05155976861715317,
            -0.03043252043426037,
            -0.07488859444856644,
            -0.07513099908828735,
            -0.09100252389907837,
            -0.061519283801317215,
            -0.07697182893753052,
            -0.05862221494317055,
            -0.007321374490857124,
            0.011849775910377502,
            0.03089558705687523,
            0.010538507252931595,
            -0.01150500774383545,
            -0.01752486452460289,
            -0.03114832378923893,
            0.03005167469382286,
            0.05328592285513878,
            -0.05284477025270462,
            -0.0587327741086483,
            0.03726397082209587,
            0.0801633894443512,
            0.08006852865219116,
            0.037386659532785416,
            -0.02270391955971718,
            -0.07522547245025635,
            -0.0595620796084404,
            -0.08045908808708191,
            -0.0799817144870758,
            -0.06538205593824387,
            -0.07033849507570267,
            -0.05128699168562889,
            -0.06944109499454498,
            0.055295757949352264,
            -0.013631485402584076,
            -0.03263787925243378,
            0.031147394329309464,
            0.006813652813434601,
            0.03193658962845802,
            -0.005755752325057983,
            -0.008975459262728691,
            -0.03357522189617157,
            -0.013557523488998413,
            0.02342042699456215,
            -0.03498020023107529,
            -0.07254549115896225,
            -0.038294922560453415,
            -0.03947041928768158,
            -0.04680090770125389,
            0.05298352614045143,
            0.057349372655153275,
            0.017622366547584534,
            0.021126018837094307,
            -0.045146387070417404,
            -0.07221829146146774,
            -0.0801180899143219,
            -0.05195249989628792,
            -0.0858689621090889,
            -0.06767603754997253,
            -0.041803520172834396,
            -0.0467059426009655,
            -0.029648497700691223,
            0.03568986430764198,
            0.0003105178475379944,
            -0.010546527802944183,
            -0.01997559890151024,
            -0.02009119838476181,
            0.008997716009616852,
            0.0037365928292274475,
            -0.01823030225932598,
            -0.025173554196953773,
            -0.029590293765068054,
            -0.02505156770348549,
            -0.06614120304584503,
            -0.06831226497888565,
            -0.07318665832281113,
            0.04218858480453491,
            0.0273917056620121,
            0.03908708319067955,
            0.05697985738515854,
            0.025230996310710907,
            -0.07265165448188782,
            -0.073551245033741,
            -0.03723965212702751,
            -0.0343099869787693,
            -0.025645790621638298,
            -0.04963502287864685,
            -0.04279985651373863,
            -0.06292182952165604,
            -0.0809333398938179,
            0.02506328374147415,
            0.08180214464664459,
            -0.005190961062908173,
            0.01467306911945343,
            0.0017579197883605957,
            -0.03333289548754692,
            -0.017521245405077934,
            0.010047581046819687,
            -0.007228586822748184,
            -0.034487947821617126,
            -0.047530315816402435,
            -0.05868415907025337,
            -0.0715317502617836,
            0.014427550137043,
            0.007539983838796616,
            0.04687720909714699,
            0.09213730692863464,
            0.048207033425569534,
            -0.08344605565071106,
            -0.07512237876653671,
            -0.09030601382255554,
            -0.04090026766061783,
            -0.07975179702043533,
            -0.09330840408802032,
            -0.07086367905139923,
            -0.08068498969078064,
            -0.08025386929512024,
            -0.09520170837640762,
            -0.0711984634399414,
            0.06611255556344986,
            0.08768624067306519,
            0.0051144324243068695,
            -0.016887426376342773,
            0.035478148609399796,
            0.0007638260722160339,
            0.028232771903276443,
            0.008704278618097305,
            0.032012734562158585,
            -0.039447661489248276,
            -0.07826198637485504,
            -0.034966181963682175,
            -0.05982411280274391,
            -0.02866847813129425,
            0.05256495997309685,
            -0.09228512644767761,
            -0.07855690270662308,
            -0.10369083285331726,
            -0.04545898735523224,
            -0.07652708888053894,
            -0.07519454509019852,
            -0.05109424516558647,
            -0.07726449519395828,
            -0.028716057538986206,
            -0.07179191708564758,
            -0.07391979545354843,
            -0.1174888014793396,
            -0.061218541115522385,
            0.03832043334841728,
            0.046082645654678345,
            -0.02941734530031681,
            0.032642070204019547,
            0.0068006254732608795,
            0.030072670429944992,
            0.0023321732878684998,
            0.019412275403738022,
            -0.011403053998947144,
            -0.08854586631059647,
            -0.054320741444826126,
            -0.06323879957199097,
            -0.06365988403558731,
            -0.07759369164705276,
            0.06078809127211571,
            0.0702875480055809,
            -0.04716942831873894,
            -0.08882379531860352,
            -0.05103782191872597,
            -0.06535133719444275,
            -0.035421669483184814,
            -0.034814730286598206,
            -0.08817966282367706,
            -0.025757133960723877,
            -0.09517695009708405,
            -0.038983915001153946,
            -0.08858432620763779,
            -0.07536952197551727,
            0.04073880985379219,
            0.08152008056640625,
            -0.017672598361968994,
            -0.03156771510839462,
            0.011965472251176834,
            0.019548553973436356,
            0.03540213778614998,
            -0.003732595592737198,
            0.03435638174414635,
            0.02294420823454857,
            -0.07776688039302826,
            -0.08760189265012741,
            -0.04002302139997482,
            -0.07962087541818619,
            -0.043671637773513794,
            0.02946174331009388,
            -0.03399723768234253,
            -0.0493490993976593,
            -0.06416018307209015,
            -0.04367471858859062,
            -0.0854809507727623,
            -0.06786176562309265,
            -0.05970432236790657,
            -0.08069095015525818,
            -0.06917949765920639,
            -0.0749167874455452,
            -0.05706103518605232,
            0.06491954624652863,
            0.09085477888584137,
            0.029190581291913986,
            -0.034203819930553436,
            0.011946514248847961,
            0.013163883239030838,
            -0.026195667684078217,
            0.014476455748081207,
            -0.01937916874885559,
            0.005679167807102203,
            0.011829618364572525,
            0.030817683786153793,
            -0.07879011332988739,
            -0.08815298229455948,
            -0.027008939534425735,
            -0.04506215825676918,
            -0.04269525036215782,
            -0.04719800874590874,
            0.04737633094191551,
            -0.03857038915157318,
            -0.09123396128416061,
            -0.05508403480052948,
            -0.04391034319996834,
            -0.03565305471420288,
            -0.07788895070552826,
            -0.08419272303581238,
            -0.04666554555296898,
            -0.029246674850583076,
            0.004898115526884794,
            0.02793026715517044,
            -0.017319096252322197,
            -0.006817065179347992,
            -0.021149763837456703,
            -0.015100935474038124,
            -0.03162453696131706,
            0.02195155620574951,
            -0.008176067844033241,
            -0.02253376692533493,
            0.00929839164018631,
            -0.026703856885433197,
            -0.03505472093820572,
            -0.03951810672879219,
            -0.09515071660280228,
            -0.08808767050504684,
            -0.08360272645950317,
            -0.07938715815544128,
            -0.05559484660625458,
            -0.09537078440189362,
            -0.08653191477060318,
            -0.04374440014362335,
            -0.07175147533416748,
            -0.0742659866809845,
            -0.0896001085639,
            -0.04557856172323227,
            -0.05753031745553017,
            0.03250276297330856,
            0.014326339587569237,
            0.06762902438640594,
            0.06975114345550537,
            0.07588575780391693,
            0.07064716517925262,
            0.05458557605743408,
            -0.027646739035844803,
            0.022736012935638428,
            -0.00030614808201789856,
            -0.02373526059091091,
            -0.029250595718622208,
            0.019912421703338623,
            -0.08812234550714493,
            -0.07789050787687302,
            -0.07220826297998428,
            -0.08067160844802856,
            -0.04337627440690994,
            -0.0855327621102333,
            -0.026862891390919685,
            -0.07481653988361359,
            -0.038973357528448105,
            -0.058838360011577606,
            -0.07576142251491547,
            -0.03620487451553345,
            -0.08730490505695343,
            -0.0789477601647377,
            0.06433416157960892,
            0.0645284503698349,
            0.004590847063809633,
            0.03828609734773636,
            0.037233058363199234,
            0.044288016855716705,
            0.04769666865468025,
            -0.008318616077303886,
            -0.020317355170845985,
            0.011162329465150833,
            0.0002900548279285431,
            -0.023334581404924393,
            -0.08044712245464325,
            -0.052489396184682846,
            -0.06056419387459755,
            -0.03477751091122627,
            -0.06546834111213684,
            -0.08898677676916122,
            -0.08646928519010544,
            -0.07053764909505844,
            -0.06796449422836304,
            -0.055978767573833466,
            -0.06806422024965286,
            -0.046876758337020874,
            -0.07193232327699661,
            -0.033840857446193695,
            -0.051849257200956345,
            -0.07103096693754196,
            0.046089302748441696,
            0.025159211829304695,
            -0.024271070957183838,
            -0.01987655833363533,
            0.022393394261598587,
            0.016311462968587875,
            0.02788550779223442,
            -0.002743419259786606,
            0.024979308247566223,
            0.017756372690200806,
            0.011044897139072418,
            -0.008265925571322441,
            -0.02562207169830799,
            -0.05282469466328621,
            -0.06926877051591873,
            -0.06056215614080429,
            -0.024945519864559174,
            -0.036066848784685135,
            -0.06270130723714828,
            -0.025041647255420685,
            -0.04437125846743584,
            -0.07906951010227203,
            -0.09255699813365936,
            -0.03929903730750084,
            -0.026557741686701775,
            -0.08086156100034714,
            -0.04538247734308243,
            -0.0060387179255485535,
            -0.0994081050157547,
            -0.06101832911372185,
            0.009935770183801651,
            0.00787343829870224,
            0.024121742695569992,
            0.013074077665805817,
            0.016252044588327408,
            0.031505610793828964,
            0.011120904237031937,
            0.005301516503095627,
            -0.013002302497625351,
            0.026192478835582733,
            0.00527433305978775,
            -0.037031665444374084,
            -0.025564607232809067,
            -0.0680416077375412,
            -0.034907545894384384,
            -0.06730560958385468,
            -0.02782418020069599,
            -0.031943872570991516,
            -0.08210745453834534,
            -0.05877358838915825,
            -0.07565111666917801,
            -0.07449877262115479,
            -0.06728411465883255,
            0.05980990082025528,
            -0.10412827134132385,
            -0.12539264559745789,
            -0.11337273567914963,
            -0.0030519291758537292,
            -0.011401083320379257,
            0.026526976376771927,
            0.029030602425336838,
            0.02275223657488823,
            0.01580648496747017,
            -0.028312982991337776,
            0.03374159708619118,
            -0.03147178888320923,
            -0.011741315945982933,
            -0.025136267766356468,
            0.012842860072851181,
            -0.029718413949012756,
            -0.07765345275402069,
            -0.08273262530565262,
            -0.08199957013130188,
            -0.07671859860420227,
            -0.02494547702372074,
            -0.06297032535076141,
            -0.07110336422920227,
            -0.0433720164000988,
            0.06368757784366608,
            0.022861940786242485,
            -0.0021376146469265223,
            0.04065442830324173,
            -0.10142868757247925,
            -0.059338487684726715,
            -0.08431034535169601,
            -0.0331583097577095,
            -0.026830490678548813,
            0.015470653772354126,
            -0.004005245864391327,
            -0.03308640420436859,
            0.006622035056352615,
            -0.0022764913737773895,
            0.012902487069368362,
            -0.018167143687605858,
            -0.025496020913124084,
            0.024342268705368042,
            -0.017185740172863007,
            0.02512267231941223,
            0.028957348316907883,
            -0.024976173415780067,
            -0.016465723514556885,
            0.06431920826435089,
            0.026346122846007347,
            0.07098802179098129,
            -0.0260633435100317,
            -0.02701747789978981,
            -0.07891672104597092,
            -0.034599438309669495,
            -0.006717247422784567,
            -0.012504913844168186,
            -0.06942397356033325,
            -0.07991418987512589,
            -0.09477341920137405,
            0.01439337432384491,
            -0.013588063418865204,
            0.025016628205776215,
            0.02513989806175232,
            -0.02277752384543419,
            -0.02082044817507267,
            -0.012677036225795746,
            0.02091982215642929,
            -0.0012293942272663116,
            -0.012758741155266762,
            0.022124312818050385,
            0.033869508653879166,
            0.026403486728668213,
            -0.027310913428664207,
            -0.007417837157845497,
            -0.0068504344671964645,
            0.09049854427576065,
            0.04154817759990692,
            0.03955097123980522,
            0.060578685253858566,
            -0.008296383544802666,
            0.013518482446670532,
            0.004341136664152145,
            -0.021323328837752342,
            0.08602122217416763,
            -0.03780065104365349,
            -0.05221109464764595,
            -0.0923779308795929,
            0.01678282767534256,
            0.0237308070063591,
            0.00994289293885231,
            -0.013805117458105087,
            0.00239524245262146,
            -0.013719981536269188,
            0.03362336382269859,
            0.03448629006743431,
            -0.00416194275021553,
            -0.024028480052947998,
            0.021009020507335663,
            0.01822793483734131,
            0.018931295722723007,
            -0.02687331661581993,
            0.012110225856304169,
            -0.01524108275771141,
            -0.031391166150569916,
            -0.024938460439443588,
            0.015139520168304443,
            0.013370666652917862,
            -0.031345244497060776,
            0.020252738147974014,
            0.02736571803689003,
            0.0271117202937603,
            0.08021744340658188,
            0.05444525554776192,
            0.08398254960775375,
            0.02795999124646187,
            0.01861719787120819,
            -0.025687512010335922,
            -0.01246454007923603,
            0.028293516486883163,
            0.027227725833654404,
            0.022788528352975845,
            -0.014927154406905174,
            -0.00707315094769001,
            -0.026607483625411987,
            -0.020353607833385468,
            0.027415495365858078,
            -0.029313530772924423,
            -0.00882590189576149,
            0.007581029087305069,
            -0.021429011598229408,
            0.00832502543926239,
            -0.005741231143474579,
            0.014282990247011185,
            -0.027406558394432068,
            0.004928715527057648,
            -0.03256161883473396,
            0.02215687558054924,
            0.034691791981458664,
            -0.012747224420309067,
            0.005281079560518265,
            -0.018400371074676514,
            -0.022845899686217308,
            -0.018087711185216904,
            -0.01701417565345764,
            0.0067793577909469604,
            -0.004093825817108154,
            0.002504151314496994,
            -0.027368968352675438,
            -0.0224379263818264,
            -0.03091859072446823,
            -0.02566942200064659
        ],
        [
            0.029907744377851486,
            0.013268738985061646,
            -0.034060679376125336,
            -0.005960864946246147,
            0.0028662793338298798,
            0.019079450517892838,
            0.03312341496348381,
            0.008624132722616196,
            0.025158386677503586,
            -0.012708719819784164,
            -0.0011669322848320007,
            -0.021559515967965126,
            0.00822751596570015,
            0.03296627476811409,
            0.022427815943956375,
            0.03553861752152443,
            -0.016092458739876747,
            -0.004468658939003944,
            0.0073669105768203735,
            0.02871331200003624,
            -0.03283004090189934,
            -0.017539680004119873,
            0.005180735141038895,
            -0.02064298838376999,
            0.013341452926397324,
            -0.0024348199367523193,
            -0.009254571050405502,
            0.01915387436747551,
            0.025523990392684937,
            0.03473887965083122,
            0.016172900795936584,
            -0.0009766891598701477,
            0.0292002372443676,
            0.02842295542359352,
            -0.4467698633670807,
            -0.4112788140773773,
            -0.46632716059684753,
            -0.3417012691497803,
            0.6927863359451294,
            0.20007874071598053,
            0.21860070526599884,
            0.296021431684494,
            0.6551585793495178,
            -0.2506406307220459,
            -0.2276896834373474,
            -0.1847798079252243,
            0.15026244521141052,
            0.3092151880264282,
            0.03189468756318092,
            -0.03451000154018402,
            -0.00835595466196537,
            0.027697231620550156,
            0.01545003056526184,
            -0.0178181491792202,
            -0.030925258994102478,
            -0.00038358941674232483,
            0.013796824961900711,
            -0.029649898409843445,
            -0.02988583780825138,
            -0.0004495866596698761,
            -0.007324559614062309,
            0.022955045104026794,
            0.1624000370502472,
            -0.42074131965637207,
            -0.32276302576065063,
            0.07333067059516907,
            0.4237767159938812,
            0.1862288862466812,
            -0.2915184199810028,
            -0.11867264658212662,
            -0.23504598438739777,
            -0.4472590386867523,
            -1.083686113357544,
            -0.7295241355895996,
            -0.576124370098114,
            -0.2573349177837372,
            -0.654911458492279,
            -0.48420843482017517,
            -0.06268928200006485,
            -0.07789964973926544,
            0.007843837141990662,
            0.022238973528146744,
            -0.03482256829738617,
            0.003717724233865738,
            0.007118254899978638,
            0.004099123179912567,
            -0.0008837804198265076,
            0.2038581520318985,
            0.13377827405929565,
            0.408317893743515,
            -0.0846928134560585,
            -0.6118147373199463,
            -0.49985793232917786,
            -0.18256787955760956,
            -0.37360239028930664,
            -0.08116167038679123,
            0.2128564715385437,
            0.06698066741228104,
            0.06968400627374649,
            0.10702455043792725,
            -0.15268215537071228,
            0.14615236222743988,
            0.05615731701254845,
            -0.07430415600538254,
            0.1683788001537323,
            -1.190285325050354,
            -0.6496158838272095,
            -0.4240846633911133,
            -0.37867438793182373,
            -0.15473002195358276,
            -0.00865023024380207,
            0.001277383416891098,
            -0.03330661356449127,
            -0.0015864185988903046,
            -0.010074999183416367,
            0.4229770004749298,
            0.1436019092798233,
            -0.576034665107727,
            -0.052156466990709305,
            0.3301169276237488,
            -0.45453983545303345,
            -0.6065570116043091,
            -0.3386492431163788,
            -0.1880941540002823,
            -0.20965047180652618,
            -0.20510366559028625,
            0.06627199798822403,
            -0.05748353525996208,
            0.20600625872612,
            0.13897927105426788,
            0.15924717485904694,
            0.3343776762485504,
            -0.3504718840122223,
            -0.1053907573223114,
            -0.3114398717880249,
            -0.49521657824516296,
            -0.22866162657737732,
            -0.8879553079605103,
            0.011439599096775055,
            0.02266477420926094,
            0.0133449025452137,
            0.02915262058377266,
            0.1071426272392273,
            0.4750610589981079,
            -0.6613699197769165,
            0.6142935156822205,
            0.40568777918815613,
            0.13697312772274017,
            0.5176360011100769,
            -0.09290875494480133,
            -0.24581396579742432,
            -0.40496596693992615,
            -0.06506959348917007,
            0.03175915777683258,
            -0.07415127754211426,
            0.05296989157795906,
            0.04641313478350639,
            0.0934748500585556,
            -0.02728656493127346,
            0.045919016003608704,
            -0.14634016156196594,
            -0.4122118651866913,
            -0.3356834650039673,
            -0.2415197491645813,
            -0.3262575566768646,
            -0.5648314952850342,
            -0.6374783515930176,
            -0.006162971258163452,
            0.03468068316578865,
            0.024954903870821,
            0.12553012371063232,
            0.6984384655952454,
            0.2357102632522583,
            0.4670944809913635,
            0.5019716620445251,
            0.33914464712142944,
            0.46228882670402527,
            0.15643326938152313,
            0.08904862403869629,
            0.09509821236133575,
            0.0681479349732399,
            0.038479093462228775,
            -0.1899084746837616,
            -0.2528955936431885,
            0.08727283030748367,
            0.21512509882450104,
            0.07515057921409607,
            0.13775300979614258,
            0.0776057243347168,
            0.2120639532804489,
            -0.008437366224825382,
            -0.33009055256843567,
            -0.3570314049720764,
            -1.139129400253296,
            -0.5698011517524719,
            -0.021583540365099907,
            -0.023032452911138535,
            -0.04813530668616295,
            0.08649896830320358,
            0.2455880492925644,
            0.24849851429462433,
            -0.20045152306556702,
            0.9581887722015381,
            0.32776978611946106,
            0.43221578001976013,
            0.011460687033832073,
            0.019263042137026787,
            -0.05920785292983055,
            0.267464816570282,
            -4.7919766075210646e-05,
            -0.04335111007094383,
            -0.11142351478338242,
            -0.05614893138408661,
            0.22216284275054932,
            0.17393295466899872,
            0.1244298443198204,
            0.1828296184539795,
            -0.05937405303120613,
            -0.15065942704677582,
            0.13045811653137207,
            0.11245649307966232,
            -0.7229744791984558,
            0.10310843586921692,
            0.1618012636899948,
            0.3629908263683319,
            -0.06333978474140167,
            0.08439020067453384,
            0.7270211577415466,
            0.33207055926322937,
            0.46635013818740845,
            0.523353099822998,
            0.4869442284107208,
            0.4947013556957245,
            0.39308738708496094,
            0.10171230137348175,
            0.26783040165901184,
            0.1973074972629547,
            -0.026064053177833557,
            -0.08382298797369003,
            -0.06572004407644272,
            -0.06026527285575867,
            -0.021503206342458725,
            0.23418404161930084,
            -0.052070535719394684,
            0.043190084397792816,
            0.1018826887011528,
            0.3093445897102356,
            -0.03588572144508362,
            -0.3549663722515106,
            -0.6703628301620483,
            -0.5135350227355957,
            -0.04451645910739899,
            0.5617320537567139,
            1.2234379053115845,
            0.39884382486343384,
            0.6829566359519958,
            0.693637490272522,
            0.41464880108833313,
            0.5661747455596924,
            0.38510966300964355,
            0.3303763270378113,
            0.3744232952594757,
            0.3632340133190155,
            0.2804960012435913,
            0.3008004128932953,
            0.08377262204885483,
            0.3550871014595032,
            0.1613333523273468,
            0.14879222214221954,
            0.27305707335472107,
            0.36899664998054504,
            -0.16013172268867493,
            0.054949045181274414,
            -0.11421162635087967,
            0.054791517555713654,
            0.07357528805732727,
            0.03588712215423584,
            -0.2695923149585724,
            -0.8734224438667297,
            -0.07084691524505615,
            0.55423903465271,
            0.8204871416091919,
            0.5459043979644775,
            1.1914995908737183,
            0.5643047094345093,
            1.1021186113357544,
            0.4102950990200043,
            0.13468427956104279,
            0.25676441192626953,
            0.3383488953113556,
            0.32644224166870117,
            0.3345988392829895,
            0.3558310568332672,
            0.3580548167228699,
            0.2995099723339081,
            0.0955076590180397,
            0.23466232419013977,
            0.1800963133573532,
            0.3353807330131531,
            0.19221794605255127,
            0.26032766699790955,
            0.18556493520736694,
            0.10851233452558517,
            -0.1047017052769661,
            -0.547637939453125,
            -0.4748916029930115,
            -0.4122948944568634,
            -0.1319647878408432,
            0.4968263506889343,
            0.7097629904747009,
            1.4895505905151367,
            0.6666492819786072,
            0.15929864346981049,
            -0.17978782951831818,
            0.3292102813720703,
            0.22594095766544342,
            0.10948389023542404,
            0.24656915664672852,
            0.43997132778167725,
            0.4842541217803955,
            -0.1693512201309204,
            0.1680564284324646,
            -0.36284130811691284,
            -0.21506337821483612,
            0.29136747121810913,
            0.5845657587051392,
            0.8297476172447205,
            0.3882601261138916,
            0.31438931822776794,
            0.31497862935066223,
            -0.0038517648354172707,
            0.11207849532365799,
            -0.33834195137023926,
            -0.6898088455200195,
            -0.5981060862541199,
            -0.00922567117959261,
            0.36844268441200256,
            0.3869929015636444,
            1.0237544775009155,
            0.6578800678253174,
            0.5360411405563354,
            0.04971101135015488,
            0.0065076956525444984,
            0.13216502964496613,
            -0.21394789218902588,
            0.11893998086452484,
            0.0436805784702301,
            0.07977800816297531,
            -0.4436573088169098,
            -1.1119763851165771,
            -0.6933826804161072,
            -0.3378959596157074,
            0.20818011462688446,
            0.5858948230743408,
            0.5411460399627686,
            0.22549335658550262,
            -0.01702791079878807,
            0.17093133926391602,
            0.2967020869255066,
            -0.02661879174411297,
            -0.30139288306236267,
            0.07007725536823273,
            -0.8315752148628235,
            0.14879925549030304,
            -0.023238379508256912,
            0.10871898382902145,
            1.1115831136703491,
            0.4870920479297638,
            0.12656930088996887,
            -0.15732261538505554,
            -0.6053545475006104,
            0.11524045467376709,
            -0.25136440992355347,
            0.04945947229862213,
            -0.19695010781288147,
            -0.004521457012742758,
            -1.0721452236175537,
            -1.5496934652328491,
            -0.9109980463981628,
            -0.2787379324436188,
            0.12127698212862015,
            0.16710756719112396,
            0.1674889624118805,
            -0.3994967043399811,
            -0.11136097460985184,
            -0.028172265738248825,
            0.32333746552467346,
            -0.08859416097402573,
            0.6124090552330017,
            -0.030715378001332283,
            -0.2869717478752136,
            -0.21343544125556946,
            -0.13904228806495667,
            0.009949705563485622,
            0.9760901927947998,
            0.545887291431427,
            -0.003050500527024269,
            -0.04510660097002983,
            -0.309270977973938,
            -0.23904907703399658,
            -0.19082902371883392,
            -0.16778157651424408,
            -0.23479479551315308,
            -0.5615988373756409,
            -1.1870940923690796,
            -1.0038520097732544,
            -0.5127139687538147,
            0.013250449672341347,
            -0.0004997181240469217,
            0.04684889689087868,
            0.1192866787314415,
            0.017391448840498924,
            0.22988161444664001,
            0.3153603971004486,
            0.7007511258125305,
            0.5712263584136963,
            1.0198301076889038,
            0.5025345087051392,
            -0.30406469106674194,
            0.003779865801334381,
            -0.02484508976340294,
            -0.010342668741941452,
            0.4644474983215332,
            0.08893409371376038,
            -0.1344861388206482,
            -0.12393905967473984,
            -0.2675211727619171,
            -0.1126926839351654,
            -0.14564311504364014,
            -0.41889050602912903,
            -0.5456236004829407,
            -1.0483139753341675,
            -1.3680919408798218,
            -0.7824013829231262,
            -0.3699725270271301,
            0.03067394532263279,
            -0.03887128084897995,
            0.3441604673862457,
            0.24137021601200104,
            0.2965540289878845,
            0.5312281250953674,
            0.8640636205673218,
            0.8869647979736328,
            0.7191526889801025,
            -0.003911831881850958,
            0.3411778211593628,
            -0.5713773369789124,
            -0.010829683393239975,
            -0.008390771225094795,
            0.09580839425325394,
            0.3566704988479614,
            -0.0481092669069767,
            -0.06597688049077988,
            0.054134342819452286,
            0.4593905210494995,
            0.04969429224729538,
            0.10246682167053223,
            -0.46315521001815796,
            -0.5960750579833984,
            -1.0559139251708984,
            -0.7286257743835449,
            -0.45779871940612793,
            -0.08524304628372192,
            0.023754343390464783,
            0.2142225205898285,
            0.20234721899032593,
            0.24790257215499878,
            0.4494749903678894,
            0.31320926547050476,
            0.6039175391197205,
            0.6262688040733337,
            0.40205150842666626,
            0.3023999035358429,
            -1.4027448892593384,
            -0.2124291956424713,
            -0.02185997925698757,
            0.03564012423157692,
            0.45942533016204834,
            -0.021615775302052498,
            -0.21695585548877716,
            0.24120697379112244,
            0.2915578782558441,
            -0.5901820063591003,
            -0.26883792877197266,
            -0.0759032741189003,
            -0.355501651763916,
            -0.6941463351249695,
            -0.62714684009552,
            -0.67963045835495,
            -0.22142170369625092,
            -0.010597184300422668,
            -0.09265625476837158,
            -0.039253827184438705,
            -0.14592048525810242,
            0.24514520168304443,
            0.19431446492671967,
            0.29974615573883057,
            0.35969269275665283,
            0.20712058246135712,
            0.3237978219985962,
            0.10242409259080887,
            -0.5113449096679688,
            -0.03818061575293541,
            -0.2945438027381897,
            0.5569921731948853,
            0.32268956303596497,
            0.2625434100627899,
            0.3615872859954834,
            0.06573271006345749,
            -0.11327844113111496,
            -0.6582896113395691,
            -0.4563717842102051,
            -0.5804523825645447,
            -0.6360941529273987,
            -0.4139397442340851,
            -0.7358458042144775,
            -0.7366788387298584,
            -0.11751630902290344,
            0.05174650251865387,
            -0.1049836277961731,
            0.12086113542318344,
            -0.04320730268955231,
            0.32249146699905396,
            0.03135545179247856,
            0.22224879264831543,
            0.3708021938800812,
            0.5533878207206726,
            -0.24085478484630585,
            -0.721569836139679,
            -0.7171543836593628,
            -0.058002956211566925,
            0.17777429521083832,
            -0.02547016739845276,
            0.6919334530830383,
            1.1035984754562378,
            0.49244752526283264,
            0.3987194895744324,
            -0.004874833859503269,
            -0.30546095967292786,
            -0.20496109127998352,
            -0.025742212310433388,
            -0.2232900708913803,
            -0.4950796365737915,
            -0.30933013558387756,
            -0.6538587212562561,
            -0.2413935661315918,
            -0.07067010551691055,
            0.11368314176797867,
            0.039755936712026596,
            0.2015586495399475,
            -0.23815162479877472,
            -0.13823574781417847,
            -0.09631156176328659,
            0.10855036228895187,
            -0.3308839499950409,
            -0.3674446940422058,
            -0.4849368929862976,
            -0.08860520273447037,
            -0.10110245645046234,
            -0.0035407356917858124,
            0.0024160631000995636,
            0.38300615549087524,
            0.14270977675914764,
            0.6529877781867981,
            0.37427690625190735,
            -0.08294034004211426,
            -0.1705305576324463,
            0.005266781896352768,
            0.07391482591629028,
            0.1613164246082306,
            -0.16430385410785675,
            -0.20576904714107513,
            -0.3577767312526703,
            -0.05804985389113426,
            0.35873574018478394,
            0.18995781242847443,
            -0.09174498915672302,
            -0.43089163303375244,
            -0.4154279828071594,
            -0.43774011731147766,
            0.039106354117393494,
            -0.32279476523399353,
            -0.26111483573913574,
            -0.14568905532360077,
            -0.4887905716896057,
            -0.295983225107193,
            -0.07312803715467453,
            0.03464774414896965,
            0.026976939290761948,
            -0.06989406794309616,
            -0.16434317827224731,
            0.07478915899991989,
            0.22324131429195404,
            -0.24436059594154358,
            0.08497658371925354,
            0.3180474042892456,
            0.3371252119541168,
            0.2286086231470108,
            0.20973168313503265,
            0.20653071999549866,
            0.15096990764141083,
            0.07961554825305939,
            0.19670282304286957,
            -0.05343300476670265,
            0.02124251239001751,
            0.005310313776135445,
            -0.23636049032211304,
            -0.6099560856819153,
            -0.13233281672000885,
            -0.011678393930196762,
            -0.6993516087532043,
            -0.6476452350616455,
            0.07047010213136673,
            0.2085646688938141,
            0.09367730468511581,
            -0.02172267995774746,
            -0.02492877095937729,
            -0.022250767797231674,
            -0.010853094980120659,
            -0.6269243359565735,
            0.0873241052031517,
            0.21663111448287964,
            0.4906100034713745,
            0.4295704960823059,
            -0.02330620400607586,
            0.3084954023361206,
            0.33132481575012207,
            0.2876930832862854,
            0.1396162509918213,
            -0.1504703313112259,
            0.16344508528709412,
            0.14004434645175934,
            0.12765513360500336,
            0.010213149711489677,
            -0.09083058685064316,
            -0.29360732436180115,
            -0.24731919169425964,
            -0.24456267058849335,
            -0.3145833909511566,
            -0.9346950054168701,
            -0.8377551436424255,
            0.267282634973526,
            -0.8952569961547852,
            0.2321271151304245,
            0.022935662418603897,
            0.0019348450005054474,
            -0.2517571449279785,
            -0.35710597038269043,
            0.37869536876678467,
            0.3328339159488678,
            0.5678963661193848,
            0.632495641708374,
            0.1927662491798401,
            0.10491763055324554,
            0.33051976561546326,
            0.08225294947624207,
            -0.20743264257907867,
            0.22123904526233673,
            0.09170041233301163,
            0.024852454662322998,
            0.16467656195163727,
            -0.35757461190223694,
            0.22184599936008453,
            -0.2740202844142914,
            -0.4072183668613434,
            -0.46351566910743713,
            -0.6839559078216553,
            -1.4792258739471436,
            -0.6344342231750488,
            -0.14838692545890808,
            -0.011945480480790138,
            -0.034428443759679794,
            0.005155209451913834,
            -0.004224397242069244,
            -0.005667874123901129,
            0.43464112281799316,
            0.6765539646148682,
            0.8011016845703125,
            0.8580355644226074,
            0.5093905925750732,
            0.372972309589386,
            0.0754401758313179,
            0.11557652056217194,
            0.03571433573961258,
            0.12201458215713501,
            -0.0438455305993557,
            0.40105342864990234,
            0.07343120127916336,
            0.09717387706041336,
            0.12312883883714676,
            -0.3863036036491394,
            -0.5552734732627869,
            -0.8583477735519409,
            -0.36054161190986633,
            -0.7271880507469177,
            -0.5650362968444824,
            -0.019262727349996567,
            -0.5438336730003357,
            -0.020356277003884315,
            -0.024933665990829468,
            -0.015113499015569687,
            0.01576804742217064,
            0.008491601794958115,
            0.03293560817837715,
            0.6644955277442932,
            0.5075977444648743,
            0.5206891298294067,
            0.5647742748260498,
            0.8181654214859009,
            0.26142725348472595,
            0.448481947183609,
            0.332393616437912,
            0.0022097602486610413,
            -0.03469489514827728,
            0.19572028517723083,
            0.2603771984577179,
            0.2558208107948303,
            -0.07005725800991058,
            0.2772679626941681,
            0.1409580260515213,
            -0.3013640344142914,
            -0.21192745864391327,
            -0.34984707832336426,
            -0.7437893152236938,
            -0.23644708096981049,
            0.06700585037469864,
            0.03335819020867348,
            -0.005332291126251221,
            0.0275430865585804,
            0.03351781144738197,
            -0.0021459124982357025,
            -0.013261646032333374,
            -0.14738427102565765,
            -0.10416533797979355,
            -0.034971933811903,
            0.5885352492332458,
            0.25124117732048035,
            0.27736660838127136,
            0.30337953567504883,
            0.4368111789226532,
            -0.1619827002286911,
            0.05137616768479347,
            0.460928738117218,
            0.32380741834640503,
            0.5760409832000732,
            0.09963050484657288,
            0.5354121327400208,
            0.7584567666053772,
            -0.14266981184482574,
            0.49455517530441284,
            1.073089838027954,
            0.29609835147857666,
            0.014727570116519928,
            0.2990797162055969,
            -0.02745426632463932,
            -0.021607324481010437,
            -0.026484942063689232,
            0.023469194769859314,
            -0.03145601972937584,
            -0.026663534343242645,
            0.2431214600801468,
            0.489700049161911,
            0.5200721025466919,
            0.5492367744445801,
            0.7289409041404724,
            0.08822498470544815,
            0.6627842783927917,
            -0.13398534059524536,
            -0.45116302371025085,
            0.28200095891952515,
            -0.21901220083236694,
            -0.600724995136261,
            0.38252922892570496,
            0.8171175718307495,
            0.2546909749507904,
            0.24107541143894196,
            -0.33048349618911743,
            0.4515124261379242,
            0.9014651775360107,
            0.7126653790473938,
            0.028169188648462296,
            -0.00948033295571804,
            -0.03404990956187248,
            -0.021324196830391884
        ],
        [
            0.0011451058089733124,
            -0.02657746896147728,
            0.008157547563314438,
            0.03474295511841774,
            0.0014620237052440643,
            -0.008798360824584961,
            0.03364666923880577,
            0.02636566385626793,
            0.023732803761959076,
            0.0027091167867183685,
            0.0016327239573001862,
            -0.02769739367067814,
            0.4910430610179901,
            0.016469938680529594,
            -0.1149180680513382,
            -0.031870901584625244,
            0.019602324813604355,
            0.032052140682935715,
            0.029940832406282425,
            0.0016844570636749268,
            0.006709400564432144,
            0.005779661238193512,
            -0.014637576416134834,
            -0.005211107432842255,
            0.029135946184396744,
            0.003643680363893509,
            0.033660199493169785,
            -0.023716680705547333,
            -0.005219541490077972,
            0.00041851773858070374,
            -0.021255992352962494,
            0.02757444605231285,
            0.024943258613348007,
            -0.01926439255475998,
            0.5118762254714966,
            0.5278090238571167,
            0.6052996516227722,
            0.4836845099925995,
            0.616722047328949,
            0.30961138010025024,
            0.5333706736564636,
            0.47074010968208313,
            -0.3685795068740845,
            -0.3742879629135132,
            -0.16709572076797485,
            0.3354927599430084,
            0.5804917216300964,
            1.3926262855529785,
            1.3758864402770996,
            0.549777626991272,
            0.5895032286643982,
            0.2795046865940094,
            -0.01775970682501793,
            -0.01406773179769516,
            0.022513996809720993,
            0.010167047381401062,
            0.008181337267160416,
            0.015901319682598114,
            0.17808905243873596,
            -0.02580554224550724,
            0.6385986804962158,
            0.3121018707752228,
            0.7113164067268372,
            1.3709394931793213,
            1.4818476438522339,
            0.4812206029891968,
            1.0178152322769165,
            1.219138503074646,
            1.032517910003662,
            0.7553969621658325,
            0.7270723581314087,
            0.5147475004196167,
            0.04919055104255676,
            0.501630425453186,
            0.5414451360702515,
            0.9531418085098267,
            0.9077501893043518,
            0.9338018894195557,
            0.8505339622497559,
            0.8148401975631714,
            0.14832532405853271,
            -0.011882301419973373,
            0.01854509487748146,
            -0.0023540742695331573,
            0.014395471662282944,
            -0.02547074295580387,
            0.13098569214344025,
            0.6571540832519531,
            -0.19635862112045288,
            0.256207674741745,
            0.7921093702316284,
            0.6512057185173035,
            0.4725959300994873,
            0.5638296604156494,
            0.4285167455673218,
            0.7726449966430664,
            0.41040119528770447,
            0.8659783601760864,
            0.7760968804359436,
            0.7020711302757263,
            0.50470370054245,
            0.9214105010032654,
            0.1507013887166977,
            0.27629441022872925,
            0.02125796116888523,
            0.3303144574165344,
            -0.07608938217163086,
            0.5303530097007751,
            0.5611324906349182,
            0.03391728177666664,
            0.6236117482185364,
            0.0330192930996418,
            -0.03275832533836365,
            0.014504984021186829,
            -0.4167942404747009,
            -0.015581759624183178,
            0.041556745767593384,
            -0.0037144909147173166,
            -0.008450864814221859,
            -0.38293880224227905,
            0.03974867984652519,
            0.08046525716781616,
            0.16929790377616882,
            -0.04905015602707863,
            -0.18962852656841278,
            -0.3117232620716095,
            -0.4377492666244507,
            0.002915607998147607,
            0.21954701840877533,
            0.0037530269473791122,
            0.06326339393854141,
            0.5867711305618286,
            0.4262952506542206,
            0.39956599473953247,
            0.23366092145442963,
            0.23946310579776764,
            -0.04058533161878586,
            0.005424508359283209,
            0.1980542540550232,
            0.5023213624954224,
            0.01889919862151146,
            0.016233094036579132,
            0.8571204543113708,
            -0.11129700392484665,
            0.35809674859046936,
            -0.35268643498420715,
            0.21314366161823273,
            0.055780079215765,
            -0.08334265649318695,
            0.050594791769981384,
            0.004915475845336914,
            -0.24557264149188995,
            -0.09143930673599243,
            -0.47814032435417175,
            -0.3777197003364563,
            -0.2820081412792206,
            -0.09535934031009674,
            0.1499578207731247,
            -0.222773015499115,
            0.06396422535181046,
            0.040020402520895004,
            -0.19190455973148346,
            -0.5236159563064575,
            0.4307798743247986,
            0.7776265144348145,
            -0.07403048127889633,
            0.20821140706539154,
            0.44473451375961304,
            0.00475740060210228,
            -0.03543325141072273,
            0.40745097398757935,
            -0.2780240774154663,
            0.2247205376625061,
            0.37648805975914,
            -0.0993422120809555,
            -0.03854911029338837,
            -0.10567126423120499,
            -0.2709309756755829,
            -0.3295324444770813,
            -0.43356141448020935,
            -0.5483488440513611,
            -0.4588622450828552,
            -0.6902643442153931,
            -0.4009382724761963,
            -0.12007130682468414,
            -0.5050908327102661,
            -0.5230145454406738,
            -0.5983348488807678,
            -0.3008706569671631,
            -0.062383368611335754,
            -0.16043031215667725,
            0.4392686188220978,
            0.3894762396812439,
            0.02114296518266201,
            -0.1473584920167923,
            0.5251861214637756,
            0.006935574114322662,
            0.1309596449136734,
            0.24066436290740967,
            -0.09396640956401825,
            0.018097447231411934,
            0.08809944242238998,
            -0.06942247599363327,
            -0.1006668210029602,
            -0.23084978759288788,
            -0.12845680117607117,
            -0.4779950678348541,
            -0.12806332111358643,
            -0.663676381111145,
            -0.6207542419433594,
            -0.4030357897281647,
            -0.5253732800483704,
            -0.3803289532661438,
            -0.18624690175056458,
            -0.5773779153823853,
            -0.3387739062309265,
            -0.3766079545021057,
            -0.3277877867221832,
            -0.2644835114479065,
            -0.25805604457855225,
            0.8771397471427917,
            0.6117203235626221,
            0.7891008257865906,
            0.7750221490859985,
            0.00839703157544136,
            0.7302901744842529,
            0.3977595269680023,
            0.07468055933713913,
            0.1126873567700386,
            -0.36485055088996887,
            0.1991311013698578,
            -0.42856162786483765,
            -0.2661215364933014,
            -0.30381858348846436,
            -0.4505580961704254,
            -0.41223350167274475,
            -0.4562596380710602,
            -0.4854964017868042,
            -0.5162502527236938,
            -0.2943973243236542,
            -0.257174551486969,
            -0.10733898729085922,
            -0.4762571454048157,
            -0.43147286772727966,
            0.0408644899725914,
            -0.3804018199443817,
            -0.6102561354637146,
            0.14736250042915344,
            0.12065480649471283,
            0.2363559752702713,
            -0.024274487048387527,
            -0.705743670463562,
            -0.019666597247123718,
            0.3857308328151703,
            0.1867159605026245,
            0.09086523950099945,
            -0.46152713894844055,
            -0.5947906970977783,
            -0.8382475972175598,
            -0.4882453978061676,
            -0.13897515833377838,
            -0.5056421756744385,
            -0.7200760245323181,
            -0.3471120297908783,
            -0.44062793254852295,
            -0.5448834896087646,
            -0.5408009886741638,
            -0.35903921723365784,
            -0.32562893629074097,
            -0.29588037729263306,
            -0.31982991099357605,
            -0.3352103531360626,
            -0.3326573073863983,
            -0.10122647881507874,
            -0.5875102281570435,
            -0.11597634851932526,
            0.005731209181249142,
            -0.14252188801765442,
            -0.7153977751731873,
            -0.35196956992149353,
            0.0010422823252156377,
            0.17484807968139648,
            -0.2628937065601349,
            -0.18802790343761444,
            0.0140825305134058,
            -0.6373213529586792,
            -0.8197625875473022,
            -0.38759034872055054,
            -0.44016286730766296,
            -0.28213661909103394,
            -0.40075334906578064,
            -0.8090850710868835,
            -0.17724424600601196,
            -0.613711416721344,
            -0.32168295979499817,
            -0.2309533804655075,
            0.0030658687464892864,
            -0.0709129124879837,
            -0.11293681710958481,
            -0.21448470652103424,
            -0.33569177985191345,
            -0.44475802779197693,
            -0.2814086675643921,
            -0.6231645345687866,
            0.09470312297344208,
            -0.5039826035499573,
            -0.8527301549911499,
            -0.3863906264305115,
            0.018813606351614,
            -0.07110722362995148,
            0.41054755449295044,
            -0.24643145501613617,
            -0.08550945669412613,
            -0.6223437786102295,
            -0.7205702066421509,
            -0.29731258749961853,
            -0.18452629446983337,
            -0.18369372189044952,
            -0.14650073647499084,
            -0.26342809200286865,
            -0.14576870203018188,
            -0.2304305136203766,
            -0.41205498576164246,
            -0.24100330471992493,
            -0.12856337428092957,
            -0.21901671588420868,
            -0.23398037254810333,
            -0.23853124678134918,
            -0.5432109832763672,
            0.1595807522535324,
            0.07155906409025192,
            -0.09808876365423203,
            -0.36074507236480713,
            -0.5863226056098938,
            -1.9269495010375977,
            -0.13685530424118042,
            -0.01832667551934719,
            0.22002896666526794,
            -0.35399264097213745,
            -0.12459196895360947,
            -0.7830693125724792,
            -0.24336375296115875,
            -0.36525386571884155,
            0.0812980979681015,
            0.24388743937015533,
            0.002946008462458849,
            0.3718551695346832,
            0.39049044251441956,
            0.2110728621482849,
            0.26778730750083923,
            -0.08922800421714783,
            0.02880999632179737,
            0.2277168184518814,
            -0.08874495327472687,
            -0.19288283586502075,
            -0.3901256322860718,
            -0.42613357305526733,
            0.0034194590989500284,
            0.3214832842350006,
            -0.08821503818035126,
            -0.314003050327301,
            -0.16632235050201416,
            -1.00821053981781,
            -0.6816951036453247,
            0.031180623918771744,
            -0.11230647563934326,
            -0.24040015041828156,
            -0.4835803508758545,
            -0.560929536819458,
            0.5496395230293274,
            0.5718188881874084,
            0.5092507004737854,
            0.3724208176136017,
            0.41999393701553345,
            0.7082145810127258,
            0.5210768580436707,
            0.6013332009315491,
            0.26591968536376953,
            -0.15822729468345642,
            0.15872961282730103,
            0.12716957926750183,
            0.07089834660291672,
            -0.15871046483516693,
            -0.06658243387937546,
            -0.18473610281944275,
            -0.1240508034825325,
            0.31455478072166443,
            0.6148428320884705,
            0.6341193914413452,
            0.22541822493076324,
            -0.22880752384662628,
            -0.3316933810710907,
            0.0192205049097538,
            0.041876163333654404,
            0.06144873797893524,
            0.261960506439209,
            0.14118756353855133,
            0.9016140103340149,
            0.593883216381073,
            0.5587198138237,
            0.6904324293136597,
            0.6977314949035645,
            0.7337881922721863,
            0.8309186697006226,
            0.6524899005889893,
            0.3423101603984833,
            0.015440224669873714,
            -0.05845055729150772,
            0.27791160345077515,
            0.28463882207870483,
            0.07081592828035355,
            0.11246438324451447,
            0.38821980357170105,
            0.20244736969470978,
            0.43147334456443787,
            0.8484610915184021,
            0.5769640207290649,
            0.4261828362941742,
            -1.172586441040039,
            0.015885047614574432,
            0.021139055490493774,
            -0.009540341794490814,
            0.08734747022390366,
            0.4351692795753479,
            -0.3143838047981262,
            0.6851122975349426,
            0.752608597278595,
            0.7056317329406738,
            0.47240814566612244,
            0.7420586347579956,
            0.7316169738769531,
            0.5627928376197815,
            0.4710305631160736,
            0.2119937539100647,
            0.27706921100616455,
            0.25057485699653625,
            0.1664702296257019,
            0.41895127296447754,
            0.12351550906896591,
            0.38089028000831604,
            0.40172192454338074,
            0.49825140833854675,
            0.8554088473320007,
            0.4228953421115875,
            0.37308692932128906,
            1.068315029144287,
            -0.46150636672973633,
            0.3819093406200409,
            0.007829219102859497,
            -0.013771887868642807,
            0.35191261768341064,
            0.8150979280471802,
            -0.13564802706241608,
            0.4194769859313965,
            0.7153046131134033,
            0.6037691235542297,
            0.5521891117095947,
            0.5366026759147644,
            0.4348190426826477,
            0.48208728432655334,
            0.2731848955154419,
            0.23826196789741516,
            0.259770929813385,
            0.41139018535614014,
            0.13337253034114838,
            0.4309781789779663,
            0.32867294549942017,
            0.5851643681526184,
            0.7321985960006714,
            0.5899084210395813,
            0.4058202803134918,
            0.08833152055740356,
            0.5227237939834595,
            0.6222381591796875,
            -0.0964263305068016,
            0.2600710391998291,
            -0.01863441802561283,
            -0.5588875412940979,
            0.6244950294494629,
            0.3208807706832886,
            -0.07086789608001709,
            -0.09218539297580719,
            0.36945924162864685,
            0.16617132723331451,
            0.39701423048973083,
            0.3178872764110565,
            0.29326021671295166,
            0.3810870349407196,
            0.1283734291791916,
            0.00881405919790268,
            0.12769220769405365,
            0.4614480435848236,
            0.40821573138237,
            0.5063246488571167,
            0.5338046550750732,
            0.27737146615982056,
            0.5243138074874878,
            1.0454291105270386,
            0.14705008268356323,
            0.3388887047767639,
            -0.09500818699598312,
            -0.0674816444516182,
            0.2051885724067688,
            -0.7692789435386658,
            0.1072334423661232,
            0.027839655056595802,
            0.04793727025389671,
            0.6315962672233582,
            0.08714032173156738,
            0.10030151903629303,
            0.00364032294601202,
            0.6078983545303345,
            0.26382148265838623,
            0.21640931069850922,
            -0.15564748644828796,
            0.05262121185660362,
            0.010587521828711033,
            0.39962783455848694,
            0.2487746924161911,
            0.11706167459487915,
            0.5543392300605774,
            0.4106161594390869,
            0.5139875411987305,
            0.43646132946014404,
            0.3534969687461853,
            0.1700381636619568,
            0.015258507803082466,
            0.1267508715391159,
            0.32132551074028015,
            0.1564648300409317,
            -1.1632344722747803,
            -0.38030320405960083,
            -0.024298474192619324,
            0.30063962936401367,
            -0.11517613381147385,
            0.2843380868434906,
            0.2803671061992645,
            0.13960836827754974,
            -0.17960704863071442,
            -0.22784771025180817,
            -0.07355601340532303,
            0.07766297459602356,
            0.2595285177230835,
            0.31422170996665955,
            0.14201728999614716,
            0.4725435972213745,
            0.2622144818305969,
            0.2982996106147766,
            0.26340359449386597,
            0.20645202696323395,
            0.4063440263271332,
            0.05006062239408493,
            -0.14322367310523987,
            -0.16557323932647705,
            -0.19534863531589508,
            -0.19148242473602295,
            0.2172924131155014,
            -0.09855388849973679,
            -0.7662791013717651,
            -0.3467641770839691,
            0.004459064453840256,
            -0.5393674969673157,
            0.15293294191360474,
            0.06613502651453018,
            -0.32994645833969116,
            0.1638747751712799,
            -0.5975798964500427,
            -0.2586934268474579,
            -0.3597922623157501,
            -0.0904192253947258,
            0.21118198335170746,
            0.19896148145198822,
            0.34331318736076355,
            -0.0500643327832222,
            0.28330668807029724,
            0.25652891397476196,
            0.20250247418880463,
            0.17411498725414276,
            0.44787731766700745,
            -0.0790027379989624,
            -0.21012885868549347,
            -0.30510076880455017,
            -0.7103451490402222,
            -0.2766227126121521,
            -0.456214964389801,
            -0.706754744052887,
            0.38707396388053894,
            -0.02004588209092617,
            -0.019450081512331963,
            0.20234951376914978,
            0.4145320653915405,
            0.33410948514938354,
            -0.5522260665893555,
            -0.5319536328315735,
            -0.7228409051895142,
            -0.16092504560947418,
            -0.43646761775016785,
            0.1281554400920868,
            0.04498016834259033,
            0.21781957149505615,
            0.2815542221069336,
            0.2012753188610077,
            0.23012545704841614,
            0.1060250848531723,
            -0.030075224116444588,
            0.06171325594186783,
            0.1394832730293274,
            0.0004470014537218958,
            -0.34351351857185364,
            -0.6018385291099548,
            -0.21797505021095276,
            -0.561976432800293,
            -0.3869253098964691,
            -0.896115243434906,
            0.5104333162307739,
            -0.01205737330019474,
            -0.011411875486373901,
            -0.006601337343454361,
            0.4359102249145508,
            0.4026941955089569,
            -0.34214410185813904,
            -0.5304561853408813,
            -0.3694378733634949,
            -0.31859129667282104,
            -0.2801502048969269,
            -0.4653509259223938,
            -0.17997045814990997,
            -0.2254125028848648,
            -0.3506476879119873,
            0.11739810556173325,
            -0.4588634967803955,
            -0.341647744178772,
            -0.1795186847448349,
            -0.19781650602817535,
            -0.40304723381996155,
            -0.20574501156806946,
            0.030817633494734764,
            -0.4128572940826416,
            -0.35534921288490295,
            -0.5931317210197449,
            -0.3277513086795807,
            -0.14285707473754883,
            0.9463059902191162,
            0.14228035509586334,
            0.005714762955904007,
            0.032357703894376755,
            0.19162596762180328,
            0.3016509413719177,
            0.2454172819852829,
            -0.19626836478710175,
            -0.05613907799124718,
            -0.3187730312347412,
            -0.46851634979248047,
            -0.37588149309158325,
            -0.5711583495140076,
            -0.6200065016746521,
            -0.2021619975566864,
            -0.33002153038978577,
            -0.49093008041381836,
            -0.24158643186092377,
            -0.41884347796440125,
            -0.7784618139266968,
            -0.726571798324585,
            -0.3484930396080017,
            -0.004522501025348902,
            0.368740051984787,
            -0.058107707649469376,
            -0.3437969982624054,
            -0.37926802039146423,
            0.33012473583221436,
            0.708092451095581,
            -0.010667001828551292,
            -0.010274479165673256,
            -0.0248725563287735,
            0.008642192929983139,
            0.34399616718292236,
            0.22412621974945068,
            -0.05832609534263611,
            0.26335209608078003,
            -0.12427525222301483,
            -0.30273011326789856,
            -0.6508776545524597,
            -0.8368232250213623,
            -0.6406842470169067,
            -0.4044913947582245,
            -0.4357062578201294,
            -0.025477034971117973,
            -0.2543216049671173,
            -0.1382184475660324,
            -0.2631429433822632,
            0.2031007707118988,
            -0.1078578382730484,
            -0.0185116995126009,
            0.02300741709768772,
            -0.3185136616230011,
            -0.5298758149147034,
            -0.21126718819141388,
            0.26398828625679016,
            0.29338735342025757,
            -0.02571597695350647,
            0.006952106952667236,
            0.02570420503616333,
            0.020434845238924026,
            -0.014811797067523003,
            0.18141010403633118,
            -0.8006740808486938,
            -0.6819693446159363,
            -0.5978681445121765,
            -1.3250855207443237,
            -1.2784932851791382,
            -1.299078345298767,
            -0.6465888023376465,
            -0.9722277522087097,
            -0.8604913353919983,
            -0.4843725860118866,
            -0.20496319234371185,
            -0.6500042676925659,
            -0.5193331241607666,
            -0.5214356184005737,
            -0.7372905611991882,
            -0.2710080146789551,
            -0.27278605103492737,
            -0.32421138882637024,
            0.06291718035936356,
            0.01763278804719448,
            0.23712576925754547,
            0.3100000321865082,
            -0.028755567967891693,
            0.01895928382873535,
            -0.00731905922293663,
            0.03198074921965599,
            -0.03544182330369949,
            -0.25050073862075806,
            -0.5658283829689026,
            -0.7804306149482727,
            -1.1220836639404297,
            -1.4241371154785156,
            -0.9262639880180359,
            -0.689359188079834,
            -0.7550544142723083,
            -1.5121581554412842,
            -1.0243053436279297,
            -1.6437681913375854,
            -1.3126351833343506,
            -0.6484822630882263,
            -0.7549581527709961,
            -0.6958516836166382,
            -1.2605448961257935,
            -1.639082908630371,
            -1.0288214683532715,
            -1.1118743419647217,
            -0.5141438245773315,
            -0.0036455094814300537,
            -0.020986482501029968,
            0.006587482988834381,
            -0.018904095515608788,
            0.008930560201406479,
            0.02482551708817482,
            -0.027778273448348045,
            -0.0259835384786129,
            0.0004870407283306122,
            0.15946702659130096,
            0.1504407674074173,
            -0.6183960437774658,
            -0.6730490326881409,
            0.04975581541657448,
            -0.6818085312843323,
            -0.5472390651702881,
            -0.9273240566253662,
            -0.247148334980011,
            -1.4112900495529175,
            -0.8476231694221497,
            -0.22881808876991272,
            -0.2199268937110901,
            -0.1951587200164795,
            -0.33171263337135315,
            -0.04629221558570862,
            0.7572770714759827,
            0.7769822478294373,
            -0.03353377804160118,
            0.005734741687774658,
            0.031051818281412125,
            0.03103555366396904,
            -0.0005704723298549652
        ],
        [
            0.01294814795255661,
            -0.005927324295043945,
            -0.01002475619316101,
            0.0006869137287139893,
            -0.02080359309911728,
            0.014379307627677917,
            0.017509087920188904,
            -0.009681681171059608,
            -0.008125917986035347,
            -0.024887239560484886,
            0.004566527903079987,
            0.014204196631908417,
            0.23052971065044403,
            0.0798051655292511,
            0.06650971621274948,
            0.001009974628686905,
            0.03300541266798973,
            0.002298373728990555,
            0.009913519024848938,
            0.005070626735687256,
            -0.004270888864994049,
            0.025489628314971924,
            0.02621697634458542,
            -0.020590592175722122,
            -0.021388374269008636,
            -0.02777065709233284,
            -0.008685562759637833,
            -0.000804554671049118,
            0.029892366379499435,
            -0.034565042704343796,
            0.025348328053951263,
            -0.01994956098496914,
            0.002917211502790451,
            -0.0016690753400325775,
            0.10074852406978607,
            0.04403696209192276,
            0.19126340746879578,
            0.054210588335990906,
            -0.021632369607686996,
            0.32066988945007324,
            0.16142207384109497,
            0.29494309425354004,
            0.783645510673523,
            -0.14619292318820953,
            -0.1667996644973755,
            -0.26796770095825195,
            -0.20432181656360626,
            -0.48944684863090515,
            -0.36402952671051025,
            -0.025399787351489067,
            -0.0905933678150177,
            0.2050091177225113,
            0.010370809584856033,
            -0.02747172676026821,
            0.029190409928560257,
            -0.003781478852033615,
            -0.020930299535393715,
            0.02449852228164673,
            -0.13180752098560333,
            0.005487430840730667,
            -0.15279321372509003,
            0.24318799376487732,
            -0.5356467962265015,
            -0.21532732248306274,
            -0.4042433798313141,
            -0.16804450750350952,
            -0.0698709562420845,
            -0.2929028272628784,
            -0.4380979835987091,
            -0.3781215250492096,
            0.0561988539993763,
            -0.7018705010414124,
            -0.20428036153316498,
            0.011249786242842674,
            -0.7025598287582397,
            -0.41375982761383057,
            -0.8986160755157471,
            -0.6623020768165588,
            -0.4376102089881897,
            -0.5866397619247437,
            -1.037461757659912,
            -0.5519607663154602,
            -0.021112531423568726,
            -0.01847088895738125,
            -0.029295751824975014,
            0.030596833676099777,
            -0.18705856800079346,
            -0.08620020747184753,
            -0.3516619801521301,
            -0.9855630993843079,
            -0.7973116636276245,
            -0.3459005355834961,
            -0.3235374987125397,
            -0.6435856223106384,
            0.06410317122936249,
            -0.018974669277668,
            -0.09276483952999115,
            0.3556253910064697,
            0.4389573633670807,
            0.19128933548927307,
            0.38618379831314087,
            0.19529210031032562,
            -0.42966127395629883,
            -0.9525027871131897,
            -0.5273854732513428,
            -0.8509507179260254,
            -0.5616154074668884,
            -0.4831894636154175,
            -0.07478044927120209,
            -0.43375179171562195,
            -0.25097009539604187,
            -0.01592293009161949,
            -0.005023876205086708,
            0.018878579139709473,
            -0.03443627804517746,
            -0.0037250248715281487,
            -0.4325506389141083,
            -1.565272569656372,
            -0.471072256565094,
            0.1064794734120369,
            -0.36615419387817383,
            0.39783504605293274,
            -0.13820098340511322,
            -0.044851064682006836,
            0.10086455941200256,
            0.6634290218353271,
            0.09506499022245407,
            0.3744170665740967,
            -0.0758444145321846,
            -0.24422359466552734,
            0.09652815759181976,
            0.0003869103384204209,
            0.015530692413449287,
            -0.04198068007826805,
            -0.05328548699617386,
            0.13430920243263245,
            0.023169633001089096,
            -0.3322368562221527,
            -0.38570916652679443,
            0.018152395263314247,
            0.03082551434636116,
            0.02114119753241539,
            -1.083364725112915,
            -0.5723884701728821,
            -1.2703148126602173,
            -0.876045823097229,
            -0.2998729944229126,
            -0.5325813293457031,
            -0.6674069166183472,
            0.023659249767661095,
            0.3888870179653168,
            0.030001459643244743,
            0.10262244939804077,
            0.30058667063713074,
            0.19680695235729218,
            -0.007412099279463291,
            -0.16194278001785278,
            0.43425843119621277,
            0.49210089445114136,
            0.5600442290306091,
            -0.19183143973350525,
            0.08048916608095169,
            0.22698436677455902,
            0.04524433985352516,
            -0.39801323413848877,
            -0.2559357285499573,
            -0.5203272700309753,
            0.021868661046028137,
            -8.609145879745483e-05,
            -0.0008677728474140167,
            -0.25664055347442627,
            -0.45859086513519287,
            -0.5749769806861877,
            -0.965107798576355,
            -0.526704728603363,
            -0.6177957057952881,
            -0.49300137162208557,
            -0.24365825951099396,
            -0.4795360267162323,
            -0.2699469029903412,
            -0.23924680054187775,
            0.07277356088161469,
            -0.34931546449661255,
            -0.09021468460559845,
            0.18338797986507416,
            0.20896205306053162,
            0.44616270065307617,
            0.3884184658527374,
            0.2114928811788559,
            0.3475239872932434,
            0.3764047920703888,
            0.26089924573898315,
            -0.5248390436172485,
            -1.0158342123031616,
            -0.8191902041435242,
            -0.3246798813343048,
            -0.00438385084271431,
            0.08513962477445602,
            0.22025051712989807,
            0.3025889992713928,
            -0.3092617392539978,
            0.17074815928936005,
            -0.4489380419254303,
            -0.6086164712905884,
            -0.6009376049041748,
            -0.17911387979984283,
            -0.0745880976319313,
            -0.09683338552713394,
            -0.3569791615009308,
            -0.004606062546372414,
            -0.08296077698469162,
            -0.17110341787338257,
            0.17792852222919464,
            0.2669370174407959,
            0.462879478931427,
            0.5252286791801453,
            0.20163272321224213,
            0.09606824070215225,
            -0.046567097306251526,
            0.1682099997997284,
            -0.18741640448570251,
            -0.7759044766426086,
            -0.5187152028083801,
            0.01645747385919094,
            0.003070451319217682,
            0.5097652673721313,
            0.27735114097595215,
            0.3189929127693176,
            0.14570339024066925,
            -0.5199795961380005,
            -0.33649057149887085,
            -0.10345939546823502,
            -0.5544485449790955,
            -0.16600997745990753,
            0.04713902249932289,
            -0.38091784715652466,
            0.0829426720738411,
            0.14143195748329163,
            0.25908932089805603,
            0.09677926450967789,
            0.43427106738090515,
            0.7085716128349304,
            0.6935760974884033,
            0.38907426595687866,
            0.29012513160705566,
            0.30305662751197815,
            -0.018759602680802345,
            -0.23921413719654083,
            0.0889996588230133,
            -0.26401764154434204,
            -0.35164687037467957,
            -0.4359392523765564,
            0.004476729780435562,
            -0.08764120936393738,
            -0.2934836447238922,
            -0.010304196737706661,
            -0.15971501171588898,
            -0.03262485936284065,
            -0.39002886414527893,
            -0.5305613875389099,
            -0.4638032019138336,
            -0.25050461292266846,
            -0.1820676028728485,
            -0.18104080855846405,
            0.02094096690416336,
            0.27332979440689087,
            -0.04895858094096184,
            -0.32812264561653137,
            0.24766136705875397,
            0.5128442645072937,
            0.5829917788505554,
            0.5398615002632141,
            0.3501398265361786,
            0.33021384477615356,
            0.09695407003164291,
            -0.044154711067676544,
            -0.07680174708366394,
            -0.5408501029014587,
            -0.28123876452445984,
            0.171843484044075,
            -0.025406263768672943,
            -0.0436539351940155,
            0.03011762909591198,
            0.20225870609283447,
            -0.6196314692497253,
            -0.25845977663993835,
            -0.1156119704246521,
            -0.19462111592292786,
            -0.059404157102108,
            -0.006664286833256483,
            -0.15143008530139923,
            -0.15192939341068268,
            -0.015202486887574196,
            -0.252309113740921,
            -0.322563111782074,
            -0.5859003663063049,
            -0.37993550300598145,
            0.4406602084636688,
            0.5826557874679565,
            0.4135458469390869,
            0.2796308100223541,
            0.6177401542663574,
            0.05816713348031044,
            -0.03183441609144211,
            -0.4058631956577301,
            -0.11115583777427673,
            -0.2265070229768753,
            0.11077762395143509,
            0.026295553892850876,
            -0.3531787693500519,
            -0.2004791796207428,
            -0.3820398449897766,
            -0.5812572240829468,
            -0.0354427844285965,
            -0.026189126074314117,
            -0.030631015077233315,
            -0.15440966188907623,
            -0.4385738670825958,
            -0.08683870732784271,
            -0.03474282845854759,
            -0.3582305312156677,
            -0.4054929316043854,
            -0.990330696105957,
            -1.1181249618530273,
            -0.4721377491950989,
            -0.3697160482406616,
            -0.15777087211608887,
            0.11393160372972488,
            0.08893021941184998,
            0.31239044666290283,
            0.20635665953159332,
            -0.13964056968688965,
            -0.18930566310882568,
            -0.3153700828552246,
            -0.6662831902503967,
            -0.09652392566204071,
            0.02167588472366333,
            -0.22260253131389618,
            -0.22234660387039185,
            -0.522875964641571,
            -0.18343894183635712,
            0.0372372530400753,
            0.08811549842357635,
            -0.26959627866744995,
            -0.14646083116531372,
            0.33672401309013367,
            -0.1167311742901802,
            -0.28698211908340454,
            -0.24187107384204865,
            -0.10091587901115417,
            -1.1017411947250366,
            -1.1008436679840088,
            -1.0002257823944092,
            -0.4327981173992157,
            -0.12679260969161987,
            -0.2840200662612915,
            0.00010573740291874856,
            -0.3064776062965393,
            -0.251518189907074,
            0.033636920154094696,
            0.23512479662895203,
            -0.7394269108772278,
            -1.0154755115509033,
            -0.31036415696144104,
            -0.014767017215490341,
            0.3974738121032715,
            -0.2662906050682068,
            -0.7400153875350952,
            0.35759857296943665,
            0.28626570105552673,
            0.3842771053314209,
            0.42979779839515686,
            0.32351717352867126,
            0.0993119552731514,
            0.075276680290699,
            -0.36001595854759216,
            -0.11635375767946243,
            -0.6088056564331055,
            -1.0995838642120361,
            -1.321354866027832,
            -1.0800843238830566,
            -0.5378066897392273,
            -0.4135242998600006,
            -0.6876041889190674,
            -0.4699966013431549,
            -0.1339997798204422,
            -0.23761652410030365,
            0.2148970514535904,
            0.5618743896484375,
            0.6508574485778809,
            -0.7294155955314636,
            -0.14831572771072388,
            0.0196007639169693,
            -0.3697279393672943,
            -0.32191726565361023,
            -0.5758236646652222,
            0.9459931254386902,
            0.3232373595237732,
            0.4645685851573944,
            0.8827399015426636,
            0.5998499393463135,
            0.49518483877182007,
            0.4159349203109741,
            -0.0802563950419426,
            0.0269012413918972,
            -0.14313353598117828,
            -0.6296438574790955,
            -0.9841412305831909,
            -0.8616809844970703,
            -0.2585078477859497,
            -0.47204992175102234,
            -0.25933799147605896,
            -0.08424613624811172,
            0.2655664384365082,
            0.07428685575723648,
            0.18486370146274567,
            0.544853150844574,
            0.6835038065910339,
            -0.4926195442676544,
            0.03216454014182091,
            -0.006046861410140991,
            -0.29004165530204773,
            -0.29655349254608154,
            -0.5204198956489563,
            1.302414894104004,
            1.0402591228485107,
            0.48187336325645447,
            0.78917396068573,
            0.8416785597801208,
            0.6392158269882202,
            0.5255643129348755,
            0.3181776702404022,
            0.15530961751937866,
            -0.3400317430496216,
            -0.735691249370575,
            -0.712985098361969,
            -0.33336955308914185,
            0.03171652927994728,
            0.09660510718822479,
            0.4514472186565399,
            0.1588032841682434,
            0.3241937458515167,
            0.5762974619865417,
            0.4069807827472687,
            0.6605628132820129,
            0.6369186639785767,
            0.04481695219874382,
            -0.07922907918691635,
            0.02505507692694664,
            -0.291372150182724,
            0.08416033536195755,
            -0.23164251446723938,
            0.10832665860652924,
            1.0676164627075195,
            0.48857343196868896,
            0.8561719655990601,
            0.8016120791435242,
            0.7098749876022339,
            0.5798144936561584,
            0.7378662824630737,
            0.22691576182842255,
            -0.4327743649482727,
            -0.5000486373901367,
            -0.22970980405807495,
            -0.07833130657672882,
            0.24282056093215942,
            0.15822072327136993,
            0.42774710059165955,
            0.6504172086715698,
            0.4790775775909424,
            0.5119696855545044,
            0.5862351059913635,
            0.008613687939941883,
            -0.09236982464790344,
            0.5157135128974915,
            0.2285030037164688,
            -0.029064282774925232,
            -0.4296395778656006,
            0.3634987473487854,
            -0.15593984723091125,
            0.3983321487903595,
            0.5974019169807434,
            0.569240927696228,
            0.4065295457839966,
            0.4671994149684906,
            0.6653935313224792,
            0.5655648708343506,
            0.35933738946914673,
            0.08909668773412704,
            -0.35491645336151123,
            -0.32406049966812134,
            -0.15278616547584534,
            0.10551636666059494,
            0.07785259932279587,
            0.19859759509563446,
            0.4925800561904907,
            0.15577545762062073,
            0.17260627448558807,
            0.4370681047439575,
            0.0787694901227951,
            -0.18714973330497742,
            -0.07832688093185425,
            -0.05900039151310921,
            0.12618790566921234,
            -0.06992766261100769,
            -0.27500656247138977,
            0.004935679025948048,
            -0.5083187222480774,
            0.27467918395996094,
            0.2374527007341385,
            0.3925444483757019,
            0.14280974864959717,
            0.5217111706733704,
            0.3918120563030243,
            0.3237307369709015,
            -0.08280155807733536,
            -0.39705348014831543,
            -0.21356138586997986,
            -0.22755612432956696,
            -0.0681384801864624,
            0.270873099565506,
            0.29467105865478516,
            0.18244539201259613,
            0.24422141909599304,
            -0.0677933320403099,
            0.24661299586296082,
            0.3151274025440216,
            0.6703481078147888,
            -0.5091767311096191,
            0.2595391869544983,
            0.4810296595096588,
            -0.06872478127479553,
            0.033877771347761154,
            -0.24147923290729523,
            -0.26540452241897583,
            0.09968434274196625,
            0.46498340368270874,
            0.6263791918754578,
            0.3612469434738159,
            0.5806012749671936,
            0.3794715702533722,
            0.5809893608093262,
            0.41178545355796814,
            -0.26363229751586914,
            -0.3226943910121918,
            -0.3072172701358795,
            -0.172157883644104,
            -0.04129431024193764,
            0.19612433016300201,
            0.01664651371538639,
            -0.1470654308795929,
            0.6048293113708496,
            0.1777072697877884,
            0.428580105304718,
            0.6098395586013794,
            0.25623393058776855,
            0.20887012779712677,
            -0.20488779246807098,
            -0.08788353204727173,
            -0.20226959884166718,
            -0.022883033379912376,
            0.44400277733802795,
            0.3196074366569519,
            0.3900766372680664,
            0.6608994007110596,
            0.43402281403541565,
            0.08357357978820801,
            0.2712535262107849,
            0.2920466661453247,
            0.4429851472377777,
            0.13426443934440613,
            0.13728223741054535,
            0.0740349292755127,
            -0.1944548785686493,
            -0.01169711071997881,
            0.037798188626766205,
            -0.03100365214049816,
            0.004452295135706663,
            0.09917490184307098,
            0.41005584597587585,
            0.40753790736198425,
            0.662002682685852,
            0.7369321584701538,
            0.05051186680793762,
            0.003994587808847427,
            -0.17049945890903473,
            -0.013051473535597324,
            0.01826883852481842,
            -0.004202600568532944,
            0.1636054962873459,
            -0.17890948057174683,
            0.6897096633911133,
            0.5347787737846375,
            -0.021504109725356102,
            -0.12213731557130814,
            0.011222687549889088,
            0.15202796459197998,
            -0.022479303181171417,
            0.18003885447978973,
            0.12043169885873795,
            -0.25900498032569885,
            -0.15366993844509125,
            -0.18104904890060425,
            0.15633876621723175,
            0.056151170283555984,
            -0.022267458960413933,
            -0.11173870414495468,
            0.24411508440971375,
            0.3830287456512451,
            0.6956314444541931,
            0.4569157660007477,
            0.18387901782989502,
            -0.22417236864566803,
            -0.48291704058647156,
            0.6060107350349426,
            -0.005638314411044121,
            0.02770543470978737,
            -0.02160770632326603,
            0.889018714427948,
            0.5719141364097595,
            0.002352707553654909,
            0.04260369762778282,
            0.127436563372612,
            0.24431054294109344,
            0.1380973905324936,
            -0.22189617156982422,
            -0.13471482694149017,
            0.26540642976760864,
            0.27207449078559875,
            0.17555342614650726,
            -0.3293703496456146,
            -0.09462323784828186,
            -0.07606339454650879,
            -0.04180166870355606,
            0.27745625376701355,
            -0.06292858719825745,
            0.5207933187484741,
            0.6311712861061096,
            0.9726377129554749,
            0.017901267856359482,
            0.148448184132576,
            -0.14253491163253784,
