{"fc1.weight": [[-0.03362274914979935, 0.02141847461462021, -0.007347332313656807, 0.018169425427913666, 0.004964891821146011, -0.004373006522655487, 0.009905748069286346, 0.001761849969625473, 0.01304386556148529, -0.013917893171310425, -0.0026038847863674164, -0.0032152608036994934, 0.10250000655651093, 0.09718076884746552, 0.031220238655805588, 0.011113934218883514, -0.013300223276019096, -0.021570049226284027, -0.005986273288726807, -0.015405025333166122, -0.011444590985774994, 0.001710057258605957, 0.02129027619957924, 0.019412025809288025, -0.034912534058094025, 0.0221400186419487, 0.009977281093597412, 0.03387698158621788, 0.02357356622815132, -0.03254063427448273, -0.03395744413137436, -0.017226148396730423, 0.031361136585474014, -0.00594889372587204, 0.22714966535568237, 0.1991506963968277, 0.5871760249137878, 0.19388020038604736, 0.5675886273384094, 0.1555035263299942, 0.1797775775194168, 0.2698301672935486, 0.2960661053657532, 0.14157530665397644, 0.03191298991441727, 0.46066775918006897, 0.2740829586982727, 0.30037981271743774, 0.30315640568733215, 0.1422238051891327, 0.2822018563747406, 0.27525678277015686, -0.0016722716391086578, -0.02383868396282196, 0.021748650819063187, 0.011084184050559998, -0.023086421191692352, 0.023198023438453674, 0.02168220654129982, 0.0316748209297657, 0.2843601703643799, -0.005878785625100136, 0.4194931089878082, 0.17067259550094604, 0.16437244415283203, -0.48861026763916016, -0.1719709038734436, -0.7484742999076843, -0.5041293501853943, -0.7539832592010498, 0.19451098144054413, -0.4018658697605133, -0.2556820213794708, -0.054881904274225235, 0.07008721679449081, 0.17970463633537292, 0.19708819687366486, 0.18855684995651245, 0.25473690032958984, 0.4571582078933716, 0.18576699495315552, 0.05221756547689438, -0.03174935653805733, 0.025991741567850113, -0.0052957795560359955, 0.02008775994181633, 0.08680955320596695, -0.02678126096725464, 0.007174938917160034, 0.17452770471572876, 0.09381256997585297, 0.9181317687034607, 1.7881067991256714, -0.6928218007087708, -0.8845056295394897, -0.0472034327685833, -0.4724809229373932, 0.5495941638946533, -1.0071356296539307, -1.6034249067306519, -1.6053961515426636, -0.6791468858718872, -0.2582128047943115, -0.20219607651233673, -0.24966809153556824, 0.13980691134929657, 0.10232176631689072, 0.0822184756398201, 0.15478141605854034, 0.049201659858226776, 0.004465319216251373, 0.026652049273252487, 0.02587268128991127, 0.022187087684869766, -0.21511399745941162, -0.02571800909936428, 0.5337086915969849, 0.001771111274138093, 0.244062140583992, -0.09591144323348999, 0.040780697017908096, -0.12503887712955475, 0.49233707785606384, -0.37207862734794617, -0.7003321647644043, -1.2810019254684448, -1.127906322479248, -0.7706108689308167, -1.2122586965560913, -1.2451012134552002, -0.3556492328643799, -0.23975162208080292, -0.032332200556993484, 0.30883505940437317, 0.0864252895116806, -0.09083151072263718, -0.06691012531518936, 0.014099103398621082, 0.04909048229455948, 0.013066202402114868, 0.011053137481212616, -0.008086975663900375, 0.013726457953453064, 0.43606334924697876, 1.1413089036941528, 0.8098477721214294, -0.051310863345861435, -0.35509634017944336, -0.14379936456680298, 0.05591870844364166, -0.17379188537597656, 0.06351540982723236, 0.22822661697864532, -0.19572387635707855, -0.029939038679003716, -0.24038946628570557, -0.12494829297065735, -0.409635990858078, 0.3149636685848236, 0.12455672770738602, -0.1329353004693985, -0.32257360219955444, -0.08291681110858917, -0.87897789478302, 0.1188928633928299, 0.23497629165649414, 0.06405813246965408, 0.01527269184589386, 0.006524622440338135, 0.008822016417980194, 0.48147091269493103, 1.7185600996017456, 1.7584928274154663, -0.5709030032157898, 0.008207487873733044, -0.5812427997589111, 0.5864264369010925, 0.3327278792858124, 0.38392966985702515, 0.5481628775596619, 0.6943251490592957, 0.738228976726532, 1.1116116046905518, 0.5225418210029602, -0.014429131522774696, -0.10594987869262695, -0.4832146167755127, -1.258558988571167, -0.47544118762016296, 0.07332780957221985, -0.4987279176712036, -0.9999860525131226, -0.38022154569625854, -0.1271202266216278, -0.05863499268889427, -0.34019529819488525, 0.008649639785289764, 0.28928664326667786, 0.12279713898897171, 1.2772867679595947, 0.3796975910663605, -0.5277162790298462, -0.23532472550868988, -0.224681094288826, 0.5139294266700745, 0.6469831466674805, 0.6558128595352173, 0.985822856426239, 0.7127036452293396, 1.1550136804580688, 0.8038240671157837, 0.32625988125801086, -0.22472773492336273, -0.5118602514266968, -1.1517482995986938, -1.4129165410995483, -1.2752807140350342, -0.9278783202171326, -1.2913908958435059, -1.5183117389678955, -0.018903538584709167, -0.6091974377632141, -0.19468113780021667, 0.2805606722831726, 0.07869254052639008, 0.48182928562164307, 0.7413052916526794, 0.7358886003494263, 0.6272076964378357, -0.7118805646896362, -0.18295162916183472, 0.1178840920329094, 0.4049994945526123, 0.207020103931427, 0.3082275986671448, 0.8948165774345398, 0.5909505486488342, 0.2794688642024994, 0.6204814314842224, -0.15416809916496277, 0.06717156618833542, -0.25828006863594055, -0.3088357746601105, -0.3991357386112213, -0.9513782858848572, -0.35812249779701233, -0.34782156348228455, -0.8374553918838501, -0.22774246335029602, -0.6039605140686035, -0.14134517312049866, 0.2043035924434662, 0.0971529632806778, 0.46478351950645447, 0.4957980215549469, 1.17408287525177, 1.7559176683425903, -0.05346972122788429, 0.17584781348705292, 0.4257902204990387, 0.33546170592308044, 0.5196763277053833, 0.47775524854660034, 0.5898444056510925, 0.10249558836221695, -0.09891675412654877, 0.2482782006263733, 0.022302016615867615, 0.11097167432308197, 0.3145793676376343, 0.21440228819847107, -0.21912313997745514, -0.5218884348869324, -0.29424020648002625, -0.35730868577957153, -0.7113450765609741, -1.0305850505828857, -0.5068742036819458, -0.32853609323501587, 0.07013638317584991, 0.0729435533285141, 0.4288363754749298, 0.8977031707763672, 1.043715476989746, -0.06752588599920273, 0.4186190664768219, 0.8076744079589844, 0.39319247007369995, 0.3116775155067444, -0.37667012214660645, 0.29257073998451233, 0.03338846564292908, -0.8438962697982788, -0.11759842932224274, -0.10857497155666351, -0.879184365272522, -0.02596205659210682, 0.4371500313282013, 0.6356067657470703, -0.009466585703194141, 0.1343650072813034, -0.6436716318130493, -0.33746910095214844, -0.5608565211296082, -0.8789500594139099, -0.9801362752914429, -0.2776111960411072, -0.17746873199939728, 0.21035294234752655, 0.21204756200313568, 0.9062001705169678, 1.4282307624816895, -0.4193335771560669, -0.26427432894706726, 0.22896143794059753, -0.3032836616039276, -0.3219163715839386, 0.08144145458936691, -0.19466792047023773, -0.9007371664047241, -0.4532195031642914, 0.2482161521911621, -0.47254300117492676, 0.1111818477511406, -0.053821153938770294, 0.711974561214447, 0.1068139299750328, 0.18445423245429993, -0.3548527956008911, -0.8737338185310364, -0.62387615442276, -1.22774338722229, -0.27779918909072876, -0.7358234524726868, -0.5253410339355469, -0.5989272594451904, 0.08133120834827423, 0.18467380106449127, 0.5067443251609802, 0.961281418800354, -0.09357016533613205, -0.3112136125564575, 0.1396011859178543, -0.39165425300598145, -0.6498987674713135, 0.16141298413276672, -0.2993948459625244, -0.2876017987728119, -0.7070522904396057, -0.04868121072649956, 0.18140734732151031, -0.048327941447496414, 0.3211810886859894, 0.508429229259491, 0.14675721526145935, 0.14460939168930054, 0.36673805117607117, -0.12964066863059998, -0.7270830273628235, -0.24038466811180115, -0.33118200302124023, -0.2562466263771057, -0.5139946937561035, -0.5076171159744263, 0.010047581046819687, -0.0860709697008133, 0.6118034720420837, 0.1880549043416977, -0.9149798154830933, -0.452252596616745, 0.3217681646347046, -0.03437807410955429, 0.2788645029067993, -0.011777584441006184, 0.05790141969919205, 0.0533904992043972, -0.4298658072948456, 0.25825396180152893, 0.09191561490297318, -0.2964843809604645, -0.07117710262537003, 0.12680590152740479, -0.06192844733595848, -0.4665622413158417, -0.18975304067134857, -0.402405709028244, -1.0622237920761108, -0.4405432343482971, -0.15023255348205566, -0.04533785209059715, -0.7503901720046997, 0.0007638260722160339, 0.5315446257591248, -0.07013809680938721, -0.5742886662483215, 0.49251237511634827, -0.3427172899246216, -0.26808127760887146, -0.4856502115726471, -0.009817768819630146, 0.13843901455402374, 0.07058767229318619, 0.1334349811077118, -0.18180979788303375, 0.061535462737083435, 0.1436014026403427, 0.07455378025770187, -0.029819263145327568, -0.06544721871614456, 0.018686410039663315, 0.3669697046279907, -0.23342736065387726, 0.023111311718821526, 0.10151008516550064, -0.8373920321464539, -0.36051157116889954, 0.11529750376939774, -0.2250939905643463, -1.0410945415496826, 0.030072670429944992, 0.0023321732878684998, 0.019412275403738022, -0.1217808648943901, 0.14030660688877106, -0.6099874973297119, -0.16378319263458252, -0.17713406682014465, 0.39329981803894043, 0.1740678995847702, 0.011486569419503212, 0.3317427933216095, -0.029543187469244003, 0.12925985455513, -0.3613009750843048, -0.23530082404613495, 0.09847401827573776, -0.09749901294708252, -0.009229186922311783, -0.10530687123537064, 0.06819693744182587, 0.13954965770244598, 0.4790465533733368, -0.1837712973356247, -0.14121147990226746, 0.12091947346925735, -0.7680622339248657, -1.3472447395324707, -0.183761328458786, 0.03540213778614998, -0.003732595592737198, 0.5433061122894287, 1.0050561428070068, 0.2030898928642273, -0.8283421993255615, 0.01849188096821308, 0.45864298939704895, 0.009119841270148754, 0.34132811427116394, 0.025932971388101578, 0.12384391576051712, 0.18746323883533478, -0.38713178038597107, -0.20699019730091095, -0.5893726944923401, -0.1637933850288391, -0.19049474596977234, -0.1206669956445694, 0.29031622409820557, 0.05428749695420265, 0.5345783829689026, 0.26254576444625854, 0.09905173629522324, -0.33058175444602966, -1.379987359046936, -1.5576461553573608, 0.32374611496925354, 0.014476455748081207, -0.1771959364414215, 0.4010944962501526, 0.364145427942276, 0.04832541197538376, 0.13298778235912323, -0.6032618284225464, -0.07758105546236038, 0.4490431845188141, -0.0982392355799675, 0.17766119539737701, 0.6174345016479492, 0.5948993563652039, 0.0840320810675621, -0.6460728049278259, -0.920524001121521, -0.6266746520996094, -0.15818122029304504, -0.10526257008314133, -0.08426203578710556, 0.037321124225854874, 0.5024996399879456, 0.04629778116941452, -0.2460423707962036, -0.42494842410087585, -0.6826450228691101, -1.1793957948684692, -0.03162453696131706, 0.02195155620574951, 0.14377321302890778, 0.5403825640678406, 0.780791699886322, 0.19052927196025848, -0.3538135290145874, -0.27399522066116333, -0.6998605728149414, -0.720151424407959, -0.0073211779817938805, 0.42202645540237427, 0.7600948214530945, 0.5128964781761169, -0.36082082986831665, -0.7552650570869446, -0.8509613871574402, -0.40467047691345215, -0.16728615760803223, -0.4852311611175537, 0.3775610625743866, 0.0645594596862793, 0.07026126980781555, 0.24999569356441498, 0.22167673707008362, -0.4061363637447357, -0.7466226816177368, -0.45201802253723145, -0.8631218075752258, 0.022736012935638428, 0.15164312720298767, -0.04330394044518471, 0.3618505299091339, 0.03527827188372612, -0.4278694987297058, -0.5187352299690247, -1.2220940589904785, -0.9133150577545166, -0.46091124415397644, -0.6018679738044739, -0.40199482440948486, 0.07492893934249878, -0.6903132200241089, -1.0359015464782715, -0.4719180166721344, -0.08735350519418716, 0.12497270852327347, 0.3130534291267395, 0.3695032298564911, 0.3206391930580139, 0.371673047542572, 0.1009710356593132, -0.4382111132144928, -1.2576305866241455, -0.42031267285346985, -0.8501004576683044, -0.16277927160263062, 0.011162329465150833, 0.4516584575176239, 0.09371116757392883, 0.1303441971540451, -0.40274012088775635, -0.9142386317253113, -1.6155542135238647, -0.6705740690231323, -1.051629900932312, -1.1041646003723145, -1.2875089645385742, -1.0286623239517212, -1.2546091079711914, -0.6503387689590454, 0.07148489356040955, 0.17744918167591095, 0.3673831522464752, -0.09555550664663315, 0.10856227576732635, 0.6911789774894714, 0.3600058853626251, -0.23724649846553802, -0.1271517127752304, -0.35509631037712097, -0.35578981041908264, 1.3074902296066284, -0.08574879169464111, 0.024979308247566223, 0.017756372690200806, 0.030758149921894073, 0.07097356766462326, 0.4510595500469208, 0.2354564070701599, -0.4069922864437103, -0.3918691873550415, -0.3369513154029846, -0.8133406639099121, -1.6692423820495605, -0.7256885170936584, -0.035269368439912796, 0.042409732937812805, 0.13673947751522064, 0.470619261264801, 0.3076641261577606, 0.62787264585495, 0.19667451083660126, 0.27551692724227905, 0.031271275132894516, -0.011611053720116615, -0.43564900755882263, -0.8310638666152954, -0.5366467237472534, -0.62494295835495, 0.30477067828178406, 0.30994167923927307, 0.011120904237031937, 0.005301516503095627, -0.013002302497625351, 0.24330590665340424, 0.18554387986660004, 0.45637211203575134, 0.48237597942352295, 0.5914274454116821, -0.06728212535381317, -0.7173174023628235, -0.6467939615249634, -0.6457780003547668, -0.39825448393821716, 0.17742517590522766, 0.0431879498064518, 0.10063840448856354, 0.384365975856781, 0.45745790004730225, 0.1385900378227234, 0.01673963852226734, -0.397491455078125, -0.2892988920211792, -0.8574051856994629, -0.16463026404380798, 0.4925515949726105, -0.5042729377746582, -0.2268117219209671, 0.18040910363197327, 0.03374159708619118, -0.03147178888320923, -0.011741315945982933, 0.810198962688446, 1.050255537033081, 0.4779401421546936, 0.9600027799606323, 0.48848646879196167, 0.7698617577552795, -0.10473452508449554, -0.12699078023433685, -0.0569477379322052, -0.07641421258449554, 0.3522534966468811, 0.2680785357952118, 0.11167263239622116, 0.27867746353149414, 0.027882207185029984, -0.36862847208976746, -0.32965511083602905, -0.5500922203063965, -0.5107134580612183, -0.45416489243507385, 0.011263317428529263, 1.1242765188217163, 0.4126693606376648, 0.23168973624706268, -0.0022764913737773895, 0.012902487069368362, -0.018167143687605858, -0.025496020913124084, 1.129057765007019, 1.7842661142349243, 1.8829851150512695, 0.878523051738739, 1.6056582927703857, 1.867480754852295, 0.8857852816581726, 0.8769741654396057, 1.2423524856567383, 0.5771292448043823, 0.3319300711154938, 0.5400545001029968, 0.6858928799629211, 0.1407236009836197, 0.5085425972938538, 0.32067978382110596, 0.07045095413923264, -0.16359855234622955, -0.2849312722682953, -0.5253013372421265, 0.3930869400501251, 0.8739109635353088, -0.36244407296180725, -1.1308780908584595, -0.012677036225795746, 0.02091982215642929, -0.0012293942272663116, -0.012758741155266762, 0.022124312818050385, -0.14316709339618683, 0.5385005474090576, 0.7402337193489075, 1.725096583366394, 1.8992010354995728, 1.7222381830215454, 1.4964767694473267, 1.516289234161377, 0.16427873075008392, 0.7433102130889893, 0.7956758141517639, 0.4805716276168823, 0.06589993089437485, 1.1810355186462402, 0.6183505654335022, 0.6317384839057922, 0.9446407556533813, 0.23500072956085205, 0.3942447602748871, 0.5296249389648438, 0.552918553352356, -0.4129827916622162, 0.6496445536613464, 0.03362336382269859, 0.03448629006743431, -0.00416194275021553, -0.024028480052947998, 0.021009020507335663, 0.01822793483734131, 0.0730915293097496, 0.9790757894515991, 1.3435416221618652, 0.6693423986434937, 0.3585590422153473, -0.29796916246414185, 0.4335252344608307, 1.101397156715393, 0.7785393595695496, 1.0399976968765259, 0.34754303097724915, 0.675220787525177, 0.8033428192138672, 1.9320052862167358, 1.7707059383392334, 1.6376360654830933, 1.6754155158996582, 2.5113511085510254, 1.707375407218933, 0.8478677868843079, 0.027227725833654404, 0.022788528352975845, -0.014927154406905174, -0.00707315094769001, -0.026607483625411987, -0.020353607833385468, 0.027415495365858078, -0.029313530772924423, -0.00882590189576149, 0.16075295209884644, 0.43489766120910645, 0.3190886378288269, 0.2877454161643982, 0.3432603180408478, -0.38554245233535767, 0.26015084981918335, 0.6283079385757446, 0.5571328997612, 1.0344879627227783, -0.36513662338256836, 0.9157220125198364, 1.4144320487976074, 1.2592684030532837, 0.4561454951763153, 0.04911918565630913, -0.11490574479103088, 0.09231501817703247, 0.002504151314496994, -0.027368968352675438, -0.0224379263818264, -0.03091859072446823, -0.02566942200064659], [0.029907744377851486, 0.013268738985061646, -0.034060679376125336, -0.005960864946246147, 0.0028662793338298798, 0.019079450517892838, 0.03312341496348381, 0.008624132722616196, 0.025158386677503586, -0.012708719819784164, -0.0011669322848320007, -0.021559515967965126, 0.00822751596570015, 0.03296627476811409, 0.022427815943956375, 0.03553861752152443, -0.016092458739876747, -0.004468658939003944, 0.0073669105768203735, 0.02871331200003624, -0.03283004090189934, -0.017539680004119873, 0.005180735141038895, -0.02064298838376999, 0.013341452926397324, -0.0024348199367523193, -0.009254571050405502, 0.01915387436747551, 0.025523990392684937, 0.03473887965083122, 0.016172900795936584, -0.0009766891598701477, 0.0292002372443676, 0.02842295542359352, 0.0949680283665657, 0.1291351169347763, -0.15249742567539215, 0.1330689936876297, 0.07177107781171799, 0.28178825974464417, 0.2771030068397522, -0.5325033068656921, 0.17820991575717926, 0.04683525487780571, 0.1530827134847641, 0.19186563789844513, 0.30726754665374756, 0.4642101228237152, 0.08906204998493195, -0.03451000154018402, -0.00835595466196537, 0.027697231620550156, 0.01545003056526184, -0.0178181491792202, -0.030925258994102478, -0.00038358941674232483, 0.013796824961900711, -0.029649898409843445, -0.02988583780825138, -0.0004495866596698761, -0.007324559614062309, 0.022955045104026794, -0.21726784110069275, 0.354223370552063, -0.6514308452606201, 0.6015558838844299, 1.5031758546829224, 1.363674283027649, -0.41192394495010376, -0.23865245282649994, -0.019959433004260063, -0.904321551322937, -0.3399680256843567, -1.072176218032837, 0.23620367050170898, 0.05853977054357529, -0.4647281765937805, 0.024093415588140488, -0.08306224644184113, -0.8592690825462341, -0.20211932063102722, 0.09495765715837479, -0.03482256829738617, 0.003717724233865738, 0.007118254899978638, 0.004099123179912567, -0.08128029853105545, -0.011101612821221352, -0.02772628143429756, 0.2688469886779785, 0.479403018951416, -0.1717434823513031, 0.6359473466873169, 0.12901131808757782, -0.08825211971998215, 0.09118940681219101, -0.20933201909065247, 0.3043506443500519, 0.40084195137023926, -0.13924644887447357, 0.3327304720878601, 0.2845751941204071, 0.4827095568180084, 0.502193033695221, 0.17788277566432953, -0.2525233328342438, -0.8428516387939453, -0.8603760600090027, 0.058659158647060394, 0.7504099011421204, -0.00865023024380207, 0.001277383416891098, -0.03330661356449127, -0.0015864185988903046, -0.010074999183416367, -0.023044224828481674, 0.3704817295074463, 0.9279908537864685, -0.3009333312511444, 0.09907793253660202, 0.887535810470581, 0.6908599138259888, 0.2144159972667694, 0.32062655687332153, 0.5609095692634583, 0.48554423451423645, 0.2438909113407135, 0.9437443017959595, 0.19007456302642822, 0.09251511096954346, 0.17841453850269318, 0.44247761368751526, 0.3340862989425659, 0.2925114035606384, -0.12517741322517395, -0.7957096099853516, -1.2257779836654663, -0.6563234925270081, 0.5370248556137085, 0.02266477420926094, 0.0133449025452137, 0.02915262058377266, 0.000738341361284256, 0.3287627398967743, -0.6913377642631531, -0.6162190437316895, 0.04063533991575241, 0.013552089221775532, 0.13895456492900848, -0.011496747843921185, 0.6689707636833191, 0.06666421890258789, 0.26528024673461914, 0.2549900710582733, 0.3315052092075348, -0.10651952028274536, 0.15837472677230835, 0.20210520923137665, 0.17183171212673187, -0.5086132287979126, 0.3809909522533417, 0.3635828197002411, -0.009945398196578026, 0.11356113851070404, -0.582769513130188, 0.7531104683876038, 0.16119743883609772, -0.006162971258163452, 0.03468068316578865, 0.024954903870821, 0.004773054737597704, -0.2680862843990326, -0.5512433052062988, -0.08934728801250458, 0.42337438464164734, 0.5652419924736023, 0.46996718645095825, 0.047682397067546844, 0.4898628294467926, 0.21631547808647156, 0.2508772313594818, 0.3281439244747162, 0.13347738981246948, -0.1363801807165146, -0.16277728974819183, 0.0008987845503725111, 0.19554729759693146, 0.20496848225593567, 0.14042671024799347, -0.04623369500041008, 0.24554207921028137, 0.09427165240049362, 0.545162558555603, 0.07076628506183624, -0.029445206746459007, -0.6536201238632202, -0.023032452911138535, 0.9564537405967712, 0.06339400261640549, -0.2927235960960388, 0.7453844547271729, 0.8935049772262573, 0.7323096394538879, 0.2910659909248352, -0.18236148357391357, 0.03873792663216591, 0.1440328061580658, 0.3401610851287842, 0.05967257544398308, 0.004315286874771118, 0.08790908008813858, 0.033212803304195404, 0.16934725642204285, 0.07108474522829056, 0.26028120517730713, 0.48936206102371216, -0.08593542873859406, -0.15488314628601074, 0.3095037341117859, 0.40531158447265625, -0.024244921281933784, 0.5155184268951416, 0.812217652797699, 0.7156360745429993, 0.0023653842508792877, 0.4616941809654236, -0.49489524960517883, -0.4241137206554413, -0.0639999508857727, -0.0038437622133642435, -0.013607430271804333, -0.7432733774185181, -0.23259186744689941, -0.0642508864402771, -0.2848866581916809, -0.4954622685909271, 0.2798597514629364, -0.042539678514003754, 0.7654168009757996, 0.7165224552154541, 0.9860326647758484, 0.7148820757865906, 0.4297550618648529, 0.16887101531028748, 0.22378931939601898, 0.2788153290748596, 0.15059269964694977, 0.9723665118217468, 0.4384376108646393, 0.5747947692871094, 0.12320592254400253, 0.6433591246604919, -0.10446925461292267, 0.40434324741363525, 0.0853542909026146, -0.7304553389549255, -0.022897347807884216, -0.8362098932266235, -0.9441844820976257, -0.4445461928844452, 0.08248773962259293, -0.9890370965003967, -0.4198664426803589, -0.29713696241378784, -0.0261955838650465, 0.5425233840942383, 0.5300381779670715, -0.05102657154202461, -0.07386260479688644, 0.21400132775306702, 0.2742587924003601, 0.5740335583686829, 0.40750229358673096, -0.1956121176481247, 0.16899502277374268, 0.3293797969818115, 0.6806238889694214, 1.033119559288025, -0.20022110641002655, 0.12079793214797974, -0.1119622141122818, 0.41256609559059143, 0.007816581055521965, -0.2832123637199402, -0.7953153848648071, -0.6485718488693237, -0.1837066113948822, -0.5954886674880981, -0.1986018270254135, -0.24265910685062408, 0.0037891084793955088, 0.10135044157505035, -0.09304115921258926, 0.38331323862075806, 0.003792000003159046, -1.0455989837646484, -0.8053721785545349, -0.11604055762290955, -0.10147710889577866, -0.4432985782623291, -0.0891181081533432, 0.10354476422071457, -0.3921271562576294, -0.10021726042032242, 0.1569010466337204, -0.22487881779670715, -0.23401322960853577, 0.12871171534061432, -0.19118356704711914, 0.1604788899421692, -0.268958181142807, -1.15825355052948, -0.17874640226364136, -0.8522600531578064, -0.2728425860404968, -0.2646868824958801, -0.09759301692247391, 0.3844872713088989, 0.05301783233880997, 0.4600255787372589, 0.4424162209033966, 0.4273023009300232, -1.0609233379364014, -1.668052315711975, -1.6545909643173218, -0.7356439828872681, -0.1084493026137352, 0.1752099245786667, -0.4165143668651581, -0.6161319613456726, -0.2583911418914795, 0.23739346861839294, -0.2198687195777893, -0.7038650512695312, 0.762737512588501, 0.08222579210996628, -0.1658303439617157, -0.32526156306266785, -0.22264008224010468, -0.4317448139190674, -0.551572859287262, -0.175326868891716, 0.13475768268108368, 0.6389333605766296, 0.5118847489356995, 0.4338604211807251, 0.748995840549469, 0.022570308297872543, 0.5439255237579346, 0.12229010462760925, -0.7734429240226746, -1.8243629932403564, -1.9364235401153564, -0.8527028560638428, -0.45353761315345764, -0.5638984441757202, -0.7242748737335205, -0.1917753368616104, -0.2807678282260895, 0.18251794576644897, -0.10902724415063858, -0.7317748069763184, -0.1755591630935669, -0.21646031737327576, -0.023238379508256912, -0.5253357291221619, 0.3110826313495636, -0.49251610040664673, 0.4689004421234131, 0.6550589799880981, 0.5195797681808472, 1.1209051609039307, -0.10769438743591309, 0.2640437185764313, 0.38335222005844116, 0.2448568344116211, 0.34591713547706604, 0.010456869378685951, -0.9360162019729614, -1.270613670349121, -1.6686112880706787, -0.8306818008422852, -0.8729308843612671, -0.3844628930091858, -0.6787747740745544, -0.9341269135475159, -0.16706636548042297, -0.2872326374053955, 0.29693397879600525, -0.4475126564502716, -0.007957332767546177, -0.02204323373734951, 0.6189445853233337, -0.47168534994125366, -0.02175784669816494, 0.364874005317688, -0.09532810747623444, 0.8399720788002014, 0.828766405582428, 1.0107477903366089, 0.5667627453804016, 0.19648726284503937, 0.11363553255796432, -0.1413257122039795, -0.0688423439860344, -0.21429836750030518, -0.3256007730960846, -1.1354143619537354, -1.2289446592330933, -0.8461118936538696, -1.0924702882766724, -1.0770516395568848, -0.07981647551059723, -0.33671438694000244, -0.4275834560394287, 0.5739295482635498, 0.2040836662054062, -0.773948609828949, 0.17332759499549866, 0.003779865801334381, -0.02484508976340294, 0.4979799687862396, -0.3852121829986572, 0.10259069502353668, -0.20387491583824158, 0.6643441915512085, -0.023881644010543823, 0.5828893184661865, -0.1539684534072876, 0.29794004559516907, 0.11319666355848312, -0.26258695125579834, 0.14803047478199005, -0.49777480959892273, -0.7910639643669128, -1.1905778646469116, -0.8003115653991699, -0.33166423439979553, -0.34235134720802307, -0.5473417639732361, 0.07265524566173553, 0.18655410408973694, -0.08996317535638809, 0.34726986289024353, 1.7734718322753906, -0.6340962052345276, 0.7012494802474976, -0.010829683393239975, -0.008390771225094795, 0.5196560621261597, 0.30362650752067566, 0.2700284719467163, -0.31201881170272827, 0.010618055239319801, -0.47676435112953186, -0.5287370681762695, -0.4525366425514221, -0.5821263194084167, -0.21686983108520508, -0.39677518606185913, 0.05838657543063164, -0.2415734827518463, -0.9458988308906555, -1.3437445163726807, -0.2949959337711334, -0.03719462454319, 0.4523564577102661, 0.08456603437662125, 0.6857826113700867, 0.15276242792606354, 0.09083428978919983, 0.09330432862043381, 0.3354884386062622, 1.0736706256866455, -0.2503664493560791, 0.14669166505336761, 0.03564012423157692, 0.12788549065589905, 0.22986620664596558, -0.33419084548950195, -0.3086022138595581, -0.13667775690555573, -0.5255804061889648, -0.6016950607299805, -0.47061625123023987, -0.8823743462562561, -0.1906948983669281, -0.2600328028202057, -0.4372836649417877, -0.8029802441596985, -1.4078181982040405, -1.1129182577133179, -0.11710868030786514, 0.3291875422000885, 0.4702327251434326, 0.028536176308989525, -0.010444984771311283, -0.009752615354955196, 0.2041633129119873, 0.4150152802467346, -0.12899234890937805, 1.018911361694336, 0.3803158402442932, 0.005390502512454987, 0.025159921497106552, 0.12732021510601044, 0.39564049243927, -0.5017548203468323, 0.4868490397930145, -0.45653578639030457, -0.02260674722492695, -0.4605945348739624, 0.08512215316295624, -0.4660029411315918, -0.1002298966050148, -0.574654757976532, -0.9911001324653625, -0.9077335596084595, -1.0392670631408691, -0.3495718240737915, 0.48290032148361206, 0.6604307293891907, 0.24970826506614685, 0.534296989440918, -0.04798128083348274, 0.2337694615125656, -0.24306155741214752, 0.04612646624445915, 0.2697080075740814, 1.3667349815368652, -0.02986575849354267, -0.17241425812244415, -0.02547016739845276, 0.13281795382499695, 0.006004395894706249, -0.8786479830741882, 0.13253237307071686, -0.05425085872411728, 0.3542832136154175, 0.05687864124774933, -0.03755684942007065, -0.38826093077659607, 0.1755654215812683, -0.231923907995224, -0.25007596611976624, -0.05703997611999512, 0.12388721853494644, 0.2863416075706482, 0.40364742279052734, 0.43105512857437134, 0.18509548902511597, -0.1456669420003891, 0.5311942100524902, -0.023733515292406082, 0.1967397928237915, 0.18890413641929626, 0.010082232765853405, 0.6998144388198853, 0.9141864776611328, 0.21248064935207367, 0.0024160631000995636, 0.9053847789764404, 0.20924125611782074, -0.620989203453064, -0.07982626557350159, 0.5968710780143738, 0.8655049800872803, 0.09816795587539673, 0.12527795135974884, 0.14309316873550415, 0.7113202214241028, 0.48931020498275757, 0.4991350769996643, 0.3936093747615814, 0.17177487909793854, 0.4359210729598999, 0.23517809808254242, 0.06134302541613579, 0.008898845873773098, -0.19586828351020813, 0.5710612535476685, 0.5154663324356079, 0.1603071391582489, 0.5767032504081726, -0.4552512466907501, 0.669040858745575, 1.3683429956436157, 0.03464774414896965, 0.026976939290761948, 1.4171231985092163, 1.0885459184646606, 0.9570549130439758, 0.981437087059021, 0.15418009459972382, 0.18581801652908325, 0.20156392455101013, 0.39941346645355225, 0.25206318497657776, 0.24521136283874512, 0.3636011779308319, 0.5441369414329529, 0.7708596587181091, 0.2905362546443939, 0.361603707075119, 0.16444845497608185, 0.22344741225242615, 0.14919641613960266, -0.20624519884586334, -0.06228234991431236, 0.21725276112556458, 0.4703999161720276, 0.9944674372673035, -0.43698933720588684, 0.07415907084941864, 0.581196129322052, -0.02172267995774746, -0.02492877095937729, -0.022250767797231674, 0.4270244240760803, 1.5472767353057861, 0.6613717079162598, 0.3862020969390869, 0.48926636576652527, 0.01327937375754118, 0.2599605917930603, 0.7689782977104187, -0.0003597354516386986, 0.3055534064769745, 0.6475144028663635, 0.39777442812919617, -0.01577804610133171, 0.6442220211029053, 0.4097277820110321, 0.451112300157547, 0.47822046279907227, 0.7800197601318359, 0.10990665853023529, -0.33598408102989197, 0.33189743757247925, -0.2781907618045807, -0.9471447467803955, -0.7785102128982544, 0.26328375935554504, -0.018906274810433388, 0.022935662418603897, 0.0019348450005054474, 0.1083163470029831, 0.9229673147201538, 1.8454865217208862, 1.5659908056259155, 0.774093508720398, 0.5274360775947571, 0.2658367455005646, 0.7833681106567383, 1.1750518083572388, 0.7934579849243164, 0.9508915543556213, 0.3343850076198578, 0.3056698739528656, 0.025488093495368958, 0.24332861602306366, 0.49037352204322815, 0.05878223478794098, -0.2702227532863617, 0.19128692150115967, 0.48646578192710876, 0.7676846981048584, 0.7583388090133667, -0.4061558246612549, -0.15131643414497375, -0.010912980884313583, -0.034428443759679794, 0.005155209451913834, -0.004224397242069244, -0.46821483969688416, 0.11519339680671692, 0.4854767918586731, 0.15757152438163757, 0.8174377679824829, 0.7507383823394775, 0.29574263095855713, 0.23738795518875122, -0.08795320242643356, 0.4917832612991333, 0.6473678350448608, 0.2127256840467453, 0.5360050201416016, 0.6842705011367798, 0.34579911828041077, 0.2738068997859955, 1.5519859790802002, 0.6429130434989929, -0.7733988761901855, -0.243159681558609, 0.0650678351521492, -0.8281151652336121, -0.23488099873065948, 0.2647118866443634, -0.020356277003884315, -0.024933665990829468, -0.015113499015569687, 0.01576804742217064, 0.008491601794958115, 0.22815199196338654, 0.5698210000991821, -0.3870265781879425, -0.03649815171957016, 0.04410775378346443, 0.6238785982131958, -0.0999918058514595, -0.027924880385398865, 0.10758589208126068, 0.22982288897037506, 0.7493360638618469, 0.814264714717865, 0.5983957052230835, 0.13478171825408936, 0.7578164339065552, -0.05416995286941528, 0.5079755783081055, -0.4233585298061371, -0.5677896738052368, -0.1265672743320465, 0.10974092781543732, 0.17842555046081543, 0.02488522231578827, 0.03335819020867348, -0.005332291126251221, 0.0275430865585804, 0.03351781144738197, -0.0021459124982357025, -0.013261646032333374, -0.08458058536052704, -1.2086149454116821, -0.9827463626861572, -0.6275840997695923, -0.2928902804851532, -0.565436840057373, -0.48957428336143494, -0.189191997051239, 0.9640793204307556, 1.0106030702590942, 0.32161378860473633, 0.9085299968719482, 0.10259346663951874, -0.35674068331718445, -0.27469202876091003, -0.552052915096283, -0.7462067008018494, -0.3292909860610962, -0.008736099116504192, 0.11238657683134079, 0.014727570116519928, 0.01003701239824295, -0.02745426632463932, -0.021607324481010437, -0.026484942063689232, 0.023469194769859314, -0.03145601972937584, -0.026663534343242645, 0.02352006733417511, 0.3683006763458252, -0.22077110409736633, -0.0841640904545784, 0.19368748366832733, -0.10545293241739273, 0.2984088063240051, 0.39257869124412537, 0.3415623903274536, -0.21993258595466614, -0.6278517842292786, -1.2837952375411987, 0.7368131279945374, 0.19224829971790314, -0.28848785161972046, -0.21252505481243134, -0.10392690449953079, -0.07125601172447205, 0.0012629590928554535, -0.01667923294007778, 0.028169188648462296, -0.00948033295571804, -0.03404990956187248, -0.021324196830391884], [0.0011451058089733124, -0.02657746896147728, 0.008157547563314438, 0.03474295511841774, 0.0014620237052440643, -0.008798360824584961, 0.03364666923880577, 0.02636566385626793, 0.023732803761959076, 0.0027091167867183685, 0.0016327239573001862, -0.02769739367067814, 0.0036354921758174896, 0.03473765030503273, 0.0018880181014537811, -0.031870901584625244, 0.019602324813604355, 0.032052140682935715, 0.029940832406282425, 0.0016844570636749268, 0.006709400564432144, 0.005779661238193512, -0.014637576416134834, -0.005211107432842255, 0.029135946184396744, 0.003643680363893509, 0.033660199493169785, -0.023716680705547333, -0.005219541490077972, 0.00041851773858070374, -0.021255992352962494, 0.02757444605231285, 0.024943258613348007, -0.01926439255475998, 0.03146372362971306, 0.033302512019872665, -0.020999394357204437, -0.001231856644153595, 0.03559185191988945, -0.023185888305306435, -0.005595101043581963, -0.024509375914931297, 0.02576994150876999, 0.005789630115032196, 0.014867797493934631, 0.025627534836530685, -0.005666553974151611, -0.03569955751299858, 0.0017488859593868256, -0.0027638711035251617, 0.012952417135238647, 0.01667112112045288, -0.01775970682501793, -0.01406773179769516, 0.022513996809720993, 0.010167047381401062, 0.008181337267160416, 0.015901319682598114, 0.016606856137514114, -0.02580554224550724, 0.00285184383392334, 0.003414250910282135, -0.03449876606464386, 0.00757913663983345, -0.0004765354096889496, 0.02770235762000084, -0.034089136868715286, 0.03359522297978401, -0.017477640882134438, 0.02104007452726364, 0.026384666562080383, -0.004431139677762985, -0.01827200874686241, -0.0059293899685144424, -0.022273533046245575, 0.004414509981870651, 0.015012398362159729, 0.007381036877632141, -0.0205669105052948, 0.019514326006174088, 0.03277319297194481, -0.010866545140743256, 0.01854509487748146, -0.0023540742695331573, 0.014395471662282944, -0.02547074295580387, -0.030496450141072273, -0.0010139048099517822, -0.030092483386397362, 0.012865327298641205, 0.033433351665735245, -0.007004154846072197, 0.0003445260226726532, 0.00543125718832016, -0.01725861057639122, -0.0018272660672664642, 0.0092008076608181, 0.028882045298814774, -0.029630199074745178, -0.0007069520652294159, -0.02913716621696949, -0.0031619109213352203, -0.0009418539702892303, -0.01489238254725933, 0.021905597299337387, 0.0245036818087101, -0.013854891061782837, -0.00497904047369957, -0.01094600185751915, 0.0009619295597076416, 0.01177169382572174, 0.0330192930996418, -0.03275832533836365, 0.014504984021186829, -0.021507367491722107, -0.029165074229240417, 0.02750387415289879, -0.010640190914273262, -0.020026762038469315, 0.00979715958237648, -0.007431499660015106, -0.03269003704190254, -0.01862882822751999, -0.07514098286628723, -0.06283970177173615, -0.08363117277622223, -0.09444959461688995, -0.0401897132396698, -0.030668294057250023, -0.004323724657297134, 0.03065604344010353, -0.013145267963409424, -0.023618120700120926, 0.009536877274513245, 0.031166676431894302, -0.003938596695661545, -0.002107318490743637, 0.016687490046024323, 0.00447358563542366, 0.006841648370027542, 0.01889919862151146, 0.016233094036579132, -0.02557685598731041, -0.01409926638007164, 0.02439769357442856, 0.0055111609399318695, 0.008319545537233353, -0.025730174034833908, -0.03792688250541687, -0.04578259587287903, -0.02587834559381008, -0.0914691686630249, -0.054512012749910355, -0.050729166716337204, -0.06626434624195099, -0.07682459056377411, -0.05346117541193962, -0.08957473933696747, -0.015215244144201279, 0.027124006301164627, -0.013121550902724266, -0.010282045230269432, 0.016019374132156372, -0.009035484865307808, 0.0052453577518463135, -0.03569471836090088, 0.020336221903562546, -0.03177224472165108, 0.00475740060210228, -0.03543325141072273, -0.03065294213593006, 0.028731580823659897, -0.019665611907839775, -0.001232590526342392, 0.001590963453054428, -0.027171853929758072, -0.048632245510816574, -0.04260077700018883, -0.07531291991472244, -0.07229974865913391, -0.034074511379003525, -0.0469612218439579, -0.051097553223371506, -0.08698328584432602, -0.08855315297842026, -0.05283867195248604, -0.02680141292512417, 0.025040220469236374, 0.02975941076874733, -0.014791345223784447, -0.02301919087767601, 0.034572649747133255, -0.019054574891924858, -0.02846517041325569, -0.025921469554305077, 0.0062040165066719055, 0.006935574114322662, 0.023061465471982956, 0.028759997338056564, 0.015231195837259293, 0.005098398774862289, 0.03225649520754814, -0.01473873108625412, -0.06629695743322372, -0.02979126200079918, -0.07205479592084885, -0.04088647663593292, -0.052392635494470596, -0.047445472329854965, -0.06821752339601517, -0.0904722511768341, -0.034443292766809464, -0.030644603073596954, -0.08841029554605484, 0.04333805665373802, 0.0015145950019359589, 0.017695683985948563, -0.005055109038949013, -0.01565815880894661, 0.0277923084795475, -0.017929039895534515, 0.03245099261403084, 0.000607367604970932, 0.018749039620161057, 0.00839703157544136, 0.00628608837723732, 0.02628074213862419, -0.0017898865044116974, 0.025198791176080704, 0.01179032027721405, -0.019933952018618584, 0.02340870350599289, -0.025373488664627075, 0.01859472319483757, -0.00765150785446167, -0.04896916449069977, -0.06432462483644485, -0.05299411341547966, -0.07084126025438309, -0.0452522374689579, -0.043379805982112885, 0.02738574892282486, 0.09154121577739716, -0.02880074828863144, -0.01594080775976181, 0.014059651643037796, 0.032917920500040054, 0.01161285862326622, -0.01992926560342312, 0.006284952163696289, -0.021432915702462196, 0.01680205762386322, 0.0018253922462463379, 0.003483116626739502, -0.027395572513341904, 0.019060522317886353, 0.03393237665295601, -0.024776235222816467, 0.012148469686508179, -0.015749506652355194, -0.00957261212170124, 0.031618040055036545, -0.03342857211828232, -0.06679526716470718, -0.04720623418688774, -0.04383064806461334, -0.07401267439126968, -0.07955092936754227, -0.05285022035241127, 0.02754024788737297, 0.06479428708553314, -0.02258845418691635, -0.006525665521621704, 0.03214779123663902, -0.02965700253844261, -0.01766430214047432, -0.02747664786875248, 0.021286796778440475, 0.029498647898435593, -0.02309563010931015, 0.022534281015396118, 0.022877156734466553, -0.030685417354106903, 0.012186732143163681, 0.016232464462518692, -0.006373461335897446, 0.02402561902999878, -0.0022173188626766205, -0.004637092351913452, 0.020036648958921432, -0.032653577625751495, -0.09513137489557266, -0.05341607332229614, -0.05611563101410866, -0.05752504989504814, -0.08193256705999374, -0.031591057777404785, 0.03796878457069397, -0.015795376151800156, -0.030143368989229202, -0.03556957468390465, 0.008640039712190628, -0.014392074197530746, 0.021859697997570038, 0.034477654844522476, 0.011599775403738022, 0.031224753707647324, -0.02485843375325203, 0.018813606351614, 0.019411858171224594, -0.0142947006970644, -0.0025348998606204987, -0.021431144326925278, 0.0034397728741168976, -0.03411884233355522, -0.021324384957551956, -0.030786463990807533, -0.00450686551630497, 0.003640148788690567, -0.028714241459965706, -0.07317591458559036, -0.03860640898346901, -0.05832397937774658, -0.05379331484436989, 0.044280532747507095, -0.0705382376909256, -0.031662918627262115, 0.03326914831995964, 0.0040614306926727295, 0.016449738293886185, 0.020878851413726807, 0.031313467770814896, -0.024634916335344315, 0.009968075901269913, -0.030955664813518524, 0.013294633477926254, -0.01832667551934719, 0.013907484710216522, -0.026295185089111328, 0.018897738307714462, 0.02557528391480446, 0.01963198557496071, -0.02998899295926094, 0.022334091365337372, -0.02266167849302292, -0.03340379148721695, 0.08330071717500687, 0.06613470613956451, -0.0724911019206047, -0.09127089381217957, -0.0508720763027668, -0.07548778504133224, -0.0883530005812645, -0.06451642513275146, -0.09044843167066574, 0.01759420335292816, -0.02353230118751526, -0.012156512588262558, -0.03533140569925308, -0.004967592656612396, -0.011027809232473373, 0.019706904888153076, -0.008081624284386635, 0.02404232695698738, 0.031180623918771744, 0.007284726947546005, -0.012240743264555931, -0.02942291460931301, -0.02498769387602806, -0.01203174702823162, -0.02238185703754425, 0.01891007274389267, -0.011530481278896332, 0.05874551460146904, 0.06153891608119011, 0.02919292263686657, -0.030273422598838806, -0.07370377331972122, -0.08896223455667496, -0.0005647353827953339, -0.09142577648162842, -0.055577922612428665, -0.08314448595046997, -0.00783233530819416, -0.010504297912120819, 0.025845248252153397, 0.027561958879232407, 0.035404566675424576, 0.003934197127819061, 0.022780701518058777, -0.029309159144759178, -0.023957449942827225, 0.0192205049097538, 0.007845330983400345, 0.00988488644361496, 0.020415864884853363, 0.02264472469687462, 0.01678379252552986, -0.01323024369776249, -0.011313281953334808, 0.007521633058786392, 0.029393333941698074, -0.002706218510866165, -0.07068433612585068, -0.040318187326192856, -0.03637738153338432, -0.06071414053440094, -0.07061225920915604, -0.09561475366353989, -0.05783987045288086, -0.049086231738328934, -0.026220019906759262, -0.026515698060393333, -0.0357050895690918, 0.027905840426683426, 0.03348037227988243, 0.03534520044922829, 0.03188401088118553, -0.0037652067840099335, 0.015885047614574432, 0.021139055490493774, -0.009540341794490814, -0.020576436072587967, 0.029728885740041733, -0.0037425532937049866, 0.013169500976800919, -0.016701307147741318, -0.018423311412334442, -0.006617695093154907, 0.001181088387966156, 0.021128546446561813, -0.0368531234562397, -0.06454083323478699, -0.02494216524064541, -0.07906421273946762, -0.057650648057460785, 0.037669017910957336, -0.05418753996491432, -0.027483168989419937, -0.08957639336585999, 0.008401397615671158, -0.03282249718904495, -0.007987694814801216, -0.01678515039384365, 6.020441651344299e-05, -0.024784907698631287, 0.009070340543985367, -0.0336993932723999, 0.007829219102859497, -0.013771887868642807, -0.021373115479946136, 0.03027721866965294, 0.0038555674254894257, -0.02364104613661766, -0.020130302757024765, -0.07596875727176666, -0.08116690069437027, -0.0556178018450737, -0.05955079570412636, -0.028918137773871422, -0.05901084467768669, -0.07910452783107758, -0.02934231050312519, -0.05107030272483826, -0.06775792688131332, 0.08511696010828018, -0.0307557824999094, -0.0901004746556282, -0.029455561190843582, -0.023492950946092606, -0.030712878331542015, -0.010715186595916748, 0.013073742389678955, -0.032579049468040466, -0.03490578755736351, -0.030753005295991898, -0.01863441802561283, 0.022391878068447113, 0.0316644124686718, 0.03547954186797142, 0.00038907304406166077, -0.030248204246163368, 0.034828249365091324, -0.08404107391834259, -0.04654978960752487, -0.04220115393400192, -0.049012310802936554, -0.048266131430864334, -0.09335042536258698, -0.0720682442188263, -0.08302540332078934, -0.035386327654123306, -0.0803431048989296, 0.05919817090034485, -0.028289776295423508, -0.03296418860554695, -0.08572968095541, -0.029793238267302513, 0.02826705202460289, 0.01027839258313179, -0.027381476014852524, 0.03088078275322914, -0.025783207267522812, 0.030917059630155563, 0.02562236785888672, 0.02545003965497017, -0.006852000951766968, 0.0031039342284202576, -0.02982279285788536, 0.020119503140449524, 0.0020592547953128815, 0.026446402072906494, -0.07508917152881622, -0.025553932413458824, -0.036247316747903824, -0.07005777209997177, 0.009750787168741226, -0.026053957641124725, -0.08383192121982574, -0.08452412486076355, -0.08056805282831192, 0.06998182833194733, -0.07542654871940613, -0.07236933708190918, 0.024984531104564667, 0.005898874253034592, -0.017406200990080833, -0.009692400693893433, -0.009389489889144897, 0.0166732557117939, 0.025139912962913513, 0.0284583680331707, -0.024298474192619324, -0.003815390169620514, 0.008383288979530334, -0.013957900926470757, 0.023483064025640488, -0.003970511257648468, 0.0038110315799713135, -0.03053317405283451, 0.02580573409795761, -0.08371841162443161, -0.0609123669564724, -0.0891837403178215, 0.027171019464731216, 0.002064317464828491, -0.04396990314126015, -0.08812502026557922, -0.057015400379896164, -0.04542209208011627, -0.03483232855796814, -0.033806320279836655, -0.06642976403236389, -0.06368089467287064, 0.011866196990013123, -0.0128412377089262, -0.014532744884490967, -0.03288116678595543, -0.035022951662540436, -0.018805403262376785, 0.004459064453840256, 0.0028786398470401764, 0.0028652623295783997, 0.005348477512598038, -0.00659586675465107, -0.035284675657749176, 0.03189129754900932, -0.026132499799132347, -0.0004182159900665283, -0.04586314409971237, -0.05089787393808365, -0.07556544244289398, -0.09108968079090118, -0.03145752474665642, -0.05903574451804161, -0.02748236060142517, -0.043391238898038864, -0.044796839356422424, -0.05232635512948036, -0.06810842454433441, -0.08098483085632324, 0.004337102174758911, 0.03431926295161247, 0.021410871297121048, 0.03244658187031746, 0.033493321388959885, 0.027905743569135666, -0.02004588209092617, -0.019450081512331963, -0.001225210726261139, -0.01847068779170513, -0.009690532460808754, -0.01223396509885788, 0.03125162050127983, -0.002401549369096756, 0.03457052633166313, -0.027692995965480804, -0.035229068249464035, -0.05494708567857742, -0.05293627083301544, -0.07446520775556564, -0.07812726497650146, -0.049881402403116226, -0.05826475843787193, -0.06483864039182663, -0.04192296043038368, -0.07524258643388748, -0.0319611094892025, -0.024356141686439514, -0.018585078418254852, 0.01236959919333458, 0.021948348730802536, -0.0004372894763946533, -0.02803555689752102, -0.001426704227924347, -0.01205737330019474, -0.011411875486373901, -0.006601337343454361, 0.008592605590820312, -0.008313370868563652, -0.025045281276106834, -0.017831990495324135, -0.029914410784840584, -0.03567318618297577, 0.017259422689676285, 0.01995525136590004, -0.03306494280695915, -0.05722625181078911, -0.0747433453798294, -0.08153347671031952, -0.04226145148277283, -0.08163318783044815, -0.033362049609422684, -0.07942385971546173, -0.09337060898542404, -0.08577357977628708, 0.029087569564580917, 0.026957381516695023, 0.008716896176338196, 0.0008262433111667633, 0.0306222103536129, 0.021552275866270065, 0.02114609256386757, -0.024307627230882645, 0.005714762955904007, 0.032357703894376755, -0.025158345699310303, 0.035580601543188095, -0.023392044007778168, -0.010494636371731758, -0.0016841106116771698, 0.009290345013141632, 0.01097552478313446, 0.03962622955441475, 0.01634666696190834, -0.050601549446582794, -0.06402520835399628, -0.09559518843889236, 0.09539942443370819, 0.04684523120522499, -0.07907049357891083, -0.024688631296157837, -0.07815221697092056, -0.036194201558828354, 0.02179315686225891, -0.02324594557285309, -0.02880208194255829, -0.01941569522023201, 0.011177945882081985, 0.03368962183594704, -0.0019825398921966553, -0.010667001828551292, -0.010274479165673256, -0.0248725563287735, 0.0356910414993763, -0.000387340784072876, -0.02826235257089138, -0.024398842826485634, 0.022218719124794006, 0.017274320125579834, 0.02304089069366455, 0.05628770589828491, 0.052996426820755005, 0.07175447046756744, 0.05970315635204315, 0.04855518788099289, 0.06856977939605713, -0.020354051142930984, -0.08476231247186661, -0.06792867183685303, -0.08549321442842484, 0.000906776636838913, 0.00562058761715889, 0.03497014567255974, 0.010292820632457733, -0.00020901113748550415, -0.025956368073821068, -0.014355285093188286, -0.00582224503159523, -0.02571597695350647, 0.006952106952667236, 0.02570420503616333, 0.020434845238924026, -0.014811797067523003, -0.008730653673410416, 0.03560442104935646, -0.005718350410461426, -0.03207552060484886, -0.00031359121203422546, 0.06186864152550697, 0.046784862875938416, 0.05617605894804001, 0.030929742380976677, 0.01099810004234314, -0.024785766378045082, 0.012292075902223587, 0.02690986916422844, -0.02305690012872219, -0.013983463868498802, 0.0034349747002124786, 8.613616228103638e-05, 0.02093985676765442, -0.002141151577234268, 0.005773682147264481, -0.009872078895568848, 0.011779583990573883, 0.010790456086397171, -0.028755567967891693, 0.01895928382873535, -0.00731905922293663, 0.03198074921965599, -0.03544182330369949, -0.0035453811287879944, 0.016137536615133286, 0.024627547711133957, 0.0004642680287361145, -0.01930031180381775, -0.027607016265392303, -0.027044659480452538, 0.028755847364664078, -0.03110351413488388, -0.014131879433989525, 0.018720977008342743, 0.0195305272936821, -0.031240733340382576, 0.0070807673037052155, 0.0043177008628845215, 0.032778676599264145, -0.0012666620314121246, 0.01516619324684143, -0.003086782991886139, 0.031878020614385605, -0.0036455094814300537, -0.020986482501029968, 0.006587482988834381, -0.018904095515608788, 0.008930560201406479, 0.02482551708817482, -0.027778273448348045, -0.0259835384786129, 0.0004870407283306122, -0.0020890012383461, -0.011115266010165215, 0.02989453449845314, 0.016010764986276627, -0.01184123009443283, 0.005175989121198654, -0.005373451858758926, -0.022866029292345047, 0.014612346887588501, -0.023561950773000717, 0.004322025924921036, 0.024244602769613266, -0.032801445573568344, 0.0015654079616069794, 0.03298191353678703, 0.016129281371831894, -0.01408463716506958, 0.005620535463094711, -0.03353377804160118, 0.005734741687774658, 0.031051818281412125, 0.03103555366396904, -0.0005704723298549652], [0.01294814795255661, -0.005927324295043945, -0.01002475619316101, 0.0006869137287139893, -0.02080359309911728, 0.014379307627677917, 0.017509087920188904, -0.009681681171059608, -0.008125917986035347, -0.024887239560484886, 0.004566527903079987, 0.014204196631908417, 0.03390711918473244, -0.03365073353052139, -0.030110182240605354, 0.001009974628686905, 0.03300541266798973, 0.002298373728990555, 0.009913519024848938, 0.005070626735687256, -0.004270888864994049, 0.025489628314971924, 0.02621697634458542, -0.020590592175722122, -0.021388374269008636, -0.02777065709233284, -0.008685562759637833, -0.000804554671049118, 0.029892366379499435, -0.034565042704343796, 0.025348328053951263, -0.01994956098496914, 0.002917211502790451, -0.0016690753400325775, 0.02017216384410858, -0.029876893386244774, -0.024940475821495056, 0.0008190982043743134, 0.01801050826907158, -0.017182236537337303, 0.011068973690271378, -0.009438233450055122, -0.03330431506037712, 0.004076424986124039, -0.0076114702969789505, 0.021127667278051376, 0.02352413907647133, 0.02336616814136505, 0.02237045019865036, -0.02763035148382187, -0.034262847155332565, 0.003990639001131058, 0.010370809584856033, -0.02747172676026821, 0.029190409928560257, -0.003781478852033615, -0.020930299535393715, 0.02449852228164673, 0.031280118972063065, 0.005487430840730667, -0.011389754712581635, 0.003876093775033951, -0.026326917111873627, 0.022012148052453995, 0.0224204882979393, -0.006686674430966377, -0.028313927352428436, 0.026512563228607178, -0.02921692468225956, -0.018754372373223305, 0.02130402997136116, -0.017749467864632607, 0.006801951676607132, 0.029356393963098526, -0.004514859989285469, -0.008078617975115776, 0.03310573473572731, 0.0061008520424366, 0.012457180768251419, -0.011735796928405762, -0.030811497941613197, 0.005591016262769699, -0.021112531423568726, -0.01847088895738125, -0.029295751824975014, 0.030596833676099777, -0.023970941081643105, 0.010332323610782623, 0.007348664104938507, 0.024667177349328995, 0.019504498690366745, -0.02500411495566368, 0.015831410884857178, -0.018141258507966995, 0.0013107359409332275, -0.012937413528561592, -0.030576758086681366, 0.010687906295061111, -0.02383061870932579, 0.034945737570524216, 0.014393303543329239, -0.012353641912341118, -0.020913884043693542, -0.03291777893900871, -0.018006350845098495, -0.023300014436244965, 0.0038404129445552826, 0.00854869931936264, 0.030971769243478775, 0.004800695925951004, -0.007254788652062416, -0.01592293009161949, -0.005023876205086708, 0.018878579139709473, -0.03443627804517746, -0.03269931674003601, 0.014091037213802338, -0.011017659679055214, -0.010570237413048744, -0.023013677448034286, -0.023780325427651405, -0.026745855808258057, -0.08178916573524475, -0.09270651638507843, -0.01678413711488247, 0.028653066605329514, -0.019762061536312103, 0.027146171778440475, -0.030067257583141327, 0.004141274839639664, -0.0029589496552944183, -0.026969918981194496, 0.0008685849606990814, 0.02974836155772209, -0.016136033460497856, 0.03279905393719673, -0.0037567056715488434, -0.011292874813079834, 0.017629671841859818, 0.02791917696595192, 0.03082551434636116, 0.02114119753241539, -0.03192124888300896, -0.007274160161614418, 0.0038853883743286133, -0.016276663169264793, 0.016689039766788483, -0.007862631231546402, -0.030768387019634247, -0.07584776729345322, -0.08308761566877365, -0.04637453705072403, -0.08601656556129456, -0.06903038173913956, 0.0036735236644744873, 0.015400055795907974, -0.02746816724538803, 0.024637479335069656, -0.022919464856386185, -0.027368776500225067, 0.014593657106161118, -0.020956244319677353, 0.02590757980942726, 0.015393707901239395, -0.017334751784801483, -0.007839880883693695, -0.016326360404491425, -0.0033911392092704773, -8.609145879745483e-05, -0.0008677728474140167, -0.023338591679930687, -0.029783906415104866, -0.022839710116386414, 0.006029687821865082, 0.0036620870232582092, -0.017978541553020477, -0.06584066152572632, -0.06095021963119507, -0.034496624022722244, -0.09214577823877335, -0.07592227309942245, -0.0651027262210846, -0.005865762010216713, -0.01886364072561264, 0.017780251801013947, -0.013424541801214218, 0.06364855170249939, -0.020317185670137405, 0.0353919081389904, -0.021081198006868362, -0.0074916016310453415, 0.02861488237977028, 0.019397232681512833, -0.03219282627105713, 0.022697463631629944, -0.019062422215938568, -0.00438385084271431, 0.014587558805942535, 0.002304691821336746, 0.027484457939863205, -0.013468151912093163, -0.024942148476839066, 0.0022661276161670685, 0.012287169694900513, -0.03316441923379898, -0.07819873839616776, -0.0640503466129303, -0.08065000921487808, -0.08592446148395538, -0.027924440801143646, -0.025280868634581566, -0.08160638809204102, -0.04830070957541466, -0.06495452672243118, -0.0376044437289238, -0.03268144652247429, -0.027674011886119843, 0.006905693560838699, 0.01953621581196785, -0.028899066150188446, -0.010311417281627655, 0.025947853922843933, -0.026388565078377724, 0.03190980479121208, 0.003070451319217682, 0.006498366594314575, 0.029810253530740738, -0.03336163982748985, 0.030469361692667007, -0.03188134729862213, 0.016963709145784378, -0.061621829867362976, -0.03202543780207634, -0.060503218322992325, -0.09510553628206253, -0.055432479828596115, -0.0361870601773262, -0.06711629033088684, -0.09380076080560684, -0.0650932639837265, -0.057235751301050186, -0.05124440789222717, -0.048617906868457794, -0.06480193883180618, -0.0018698237836360931, -0.007500849664211273, 0.013695452362298965, 0.008168928325176239, 0.014467962086200714, -0.003262363374233246, -0.00332535058259964, 0.026254743337631226, 0.004476729780435562, -0.0326508991420269, -0.05283064767718315, -0.02701224572956562, -0.0669746920466423, -0.038571685552597046, -0.08576028794050217, -0.06551460176706314, -0.0361744649708271, -0.07791095227003098, -0.06916069984436035, -0.059748705476522446, -0.06545206159353256, -0.07008982449769974, -0.035412464290857315, -0.06657414883375168, -0.06971697509288788, -0.033276479691267014, -0.05209844559431076, -0.07688894122838974, 0.021431826055049896, -0.07757934182882309, -0.0244558434933424, 0.08967385441064835, 0.06342461705207825, 0.06990030407905579, -0.014417929574847221, -0.027605503797531128, -0.025406263768672943, 0.011336348950862885, 0.017470795661211014, -0.00043578073382377625, -0.011680901050567627, -0.011624515056610107, -0.07981561869382858, -0.08162016421556473, -0.0364898145198822, -0.09087854623794556, -0.03397167846560478, -0.040336187928915024, -0.06979458034038544, -0.06467866152524948, -0.01198345422744751, -0.0300160963088274, -0.05717683583498001, -0.08737851679325104, -0.059029631316661835, 0.0475902184844017, -0.08768206834793091, -0.09308074414730072, -0.02823362872004509, -0.03229677304625511, 0.09268705546855927, 0.01334616169333458, 0.015931643545627594, 0.017376627773046494, 0.026295553892850876, 0.0055840350687503815, 0.0036850273609161377, 0.02604561299085617, 0.016061127185821533, -0.021697109565138817, -0.03603274002671242, -0.025571076199412346, -0.0735911950469017, -0.09397278726100922, -0.06628778576850891, -0.08337568491697311, -0.02460186369717121, -0.00756579264998436, 0.041814278811216354, 0.0828411728143692, -0.0463709682226181, -0.04953377693891525, -0.027938639745116234, -0.09530474990606308, -0.042783234268426895, -0.07680390030145645, -0.048019565641880035, -0.01282760500907898, 0.032625582069158554, -0.006855957210063934, 0.003463156521320343, -0.028082743287086487, 0.02167588472366333, -0.035351477563381195, 0.019648823887109756, 0.02523958683013916, 0.028406713157892227, 0.02176450565457344, -0.07143338024616241, -0.052742790430784225, -0.05100978910923004, -0.09417390823364258, -0.040764108300209045, -0.08885880559682846, 0.012863244861364365, 0.09450773894786835, 0.050092101097106934, 0.06490101665258408, -0.02696535363793373, -0.030605947598814964, -0.030262812972068787, -0.08476176857948303, -0.053016748279333115, -0.08990230411291122, -0.05350198596715927, -0.03379794582724571, 0.0041200630366802216, 0.018088366836309433, -0.031813789159059525, -0.005436267703771591, -0.014767017215490341, 0.029337342828512192, -0.003540288656949997, 0.022213321179151535, -0.026339374482631683, 0.004983771592378616, -0.034162696450948715, -0.05807109922170639, -0.07256627082824707, -0.07466736435890198, -0.03567154332995415, -0.0459631085395813, -0.057551052421331406, -0.03883816674351692, -0.07861030846834183, -0.08706500381231308, -0.06811578571796417, -0.03389086574316025, -0.09459453821182251, -0.07778750360012054, -0.051391564309597015, -0.04659354314208031, 0.017873544245958328, 0.0108090341091156, -0.03151698783040047, -0.011624673381447792, 0.021961737424135208, 0.006151802837848663, 0.0196007639169693, 0.026762817054986954, 0.020424246788024902, -0.014842318370938301, -0.01711922138929367, -0.006249295547604561, -0.06115030124783516, -0.06316036731004715, -0.06688889861106873, -0.05526246502995491, -0.0375773124396801, -0.0846063420176506, 0.07790613919496536, -0.09533101320266724, -0.057596463710069656, -0.09259019047021866, -0.025571471080183983, -0.0904189795255661, -0.08000914752483368, -0.036458343267440796, -0.04116007685661316, -0.0319640077650547, 0.009786039590835571, -0.03210733085870743, -0.02503984421491623, 0.02445211634039879, -0.03477682173252106, 0.03216454014182091, -0.006046861410140991, 0.006526414304971695, -0.001531153917312622, -0.009000923484563828, -0.00875919684767723, 0.010648004710674286, -0.06632499396800995, -0.05401260033249855, -0.030123861506581306, -0.05683528631925583, -0.08809210360050201, 0.032990776002407074, -0.03734460845589638, -0.04756596311926842, -0.05320018157362938, -0.07787150144577026, -0.08930128812789917, -0.029329543933272362, 0.026415981352329254, -0.07784108817577362, -0.04609489068388939, -0.029184874147176743, -0.012349938973784447, -0.03466947376728058, 0.00830976665019989, -0.0008049309253692627, -0.005450457334518433, -0.03178434073925018, 0.02505507692694664, 0.005195919424295425, 0.010336920619010925, 0.02146429941058159, 0.03103576973080635, -0.009041540324687958, -0.056910354644060135, -0.08259045332670212, -0.08701232075691223, -0.07805569469928741, -0.054712314158678055, -0.08266060054302216, -0.039798837155103683, -0.04759494215250015, -0.07177823781967163, -0.04243069142103195, -0.03333313390612602, -0.07195054739713669, -0.04017944261431694, -0.037781618535518646, -0.02656134031713009, -0.0862664058804512, 0.028556998819112778, 1.728162169456482e-05, 0.0023839659988880157, -9.990110993385315e-05, -0.023064840584993362, -0.013043280690908432, -0.029064282774925232, -0.004644658416509628, 0.008891064673662186, -0.025378286838531494, 0.013773087412118912, -0.03503973037004471, -0.04281102865934372, -0.09511563926935196, -0.061185628175735474, -0.03374555706977844, -0.09245386719703674, -0.08820046484470367, -0.07728123664855957, -0.07428030669689178, 0.040646910667419434, -0.02875792235136032, -0.08575161546468735, -0.04388711601495743, -0.08567250519990921, -0.07160530239343643, -0.08866387605667114, -0.03414714336395264, -0.01935420371592045, 0.0011959075927734375, 0.019237838685512543, 0.013972576707601547, 0.014259126037359238, 0.030268441885709763, -0.0015076324343681335, 0.03494730964303017, -0.031158244237303734, -0.016723480075597763, -0.028705934062600136, -0.024611279368400574, -0.026573961600661278, -0.09388769418001175, -0.026498544961214066, -0.05320799723267555, -0.04207708686590195, -0.0716230571269989, 0.06817065924406052, 0.040869902819395065, 0.024651149287819862, -0.05679904669523239, -0.038155071437358856, -0.005677683278918266, -0.04876372218132019, -0.045015402138233185, -0.03407103195786476, -0.03374982997775078, -0.014756308868527412, 0.0023702718317508698, 0.03438463434576988, 0.034498635679483414, -0.02420344203710556, -0.023536402732133865, 0.033877771347761154, -0.0026525594294071198, -0.020795036107301712, -0.018314307555556297, 0.02076476812362671, 0.022179584950208664, 0.09007648378610611, 0.052766747772693634, 0.0492808036506176, 0.05834522470831871, 0.09139056503772736, 0.028252584859728813, 0.0780990868806839, -0.02487112022936344, -0.06384251266717911, -0.029960280284285545, -0.0728006660938263, -0.01473274827003479, -0.06131900101900101, -0.0443209744989872, -0.031266532838344574, -0.03407624363899231, 0.028109554201364517, -0.012195378541946411, 0.00505153089761734, -0.019720474258065224, 0.00902298092842102, -0.034849196672439575, -0.022883033379912376, -0.016219565644860268, 0.022457435727119446, 0.009357232600450516, -0.0252281092107296, 0.005165968090295792, 0.034712884575128555, -0.034499332308769226, 0.03117111697793007, 0.0878622978925705, 0.061981480568647385, -0.01813190057873726, 0.016244232654571533, 0.01690930500626564, -0.07394297420978546, -0.08027978986501694, -0.08365136384963989, -0.013571351766586304, 0.007439162582159042, -0.04472809657454491, -0.06076648458838463, -0.02920415624976158, 0.010245010256767273, 0.010469425469636917, -0.01771419867873192, -0.010426901280879974, 0.02382061257958412, 0.01826883852481842, -0.004202600568532944, -0.023967500776052475, -0.033456940203905106, 0.0018740929663181305, -0.022863533347845078, -0.005624277517199516, -0.005948254838585854, -0.03346104919910431, 0.024706881493330002, -0.006620347499847412, -0.035162001848220825, -0.032598819583654404, -0.028459087014198303, -0.07403205335140228, -0.0622689425945282, -0.04532502964138985, -0.061247289180755615, -0.034174468368291855, -0.028498489409685135, -0.07831807434558868, -0.03201080486178398, -0.06168242543935776, -0.03300170600414276, -0.01495431736111641, -0.02604961395263672, 0.004890620708465576, -0.003041870892047882, -0.005638314411044121, 0.02770543470978737, -0.02160770632326603, 0.0037729740142822266, -0.012967066839337349, 0.006242498755455017, -0.028329530730843544, -0.013830900192260742, 0.016875073313713074, -0.023822691291570663, -0.016314422711730003, -0.004711125046014786, -0.02791539393365383, -0.023008283227682114, -0.07160627096891403, -0.064242884516716, -0.06773195415735245, -0.05803409591317177, -0.032723087817430496, -0.005777709186077118, -0.09141549468040466, -0.041270188987255096, -0.027535198256373405, -0.08826176822185516, -0.02571892738342285, 0.034631263464689255, 0.02774585410952568, 0.016427382826805115, -0.022560205310583115, 0.011184576898813248, -0.001133836805820465, 0.026889238506555557, 0.022218286991119385, -0.004041295498609543, 0.013922333717346191, -0.031214673072099686, 0.006143469363451004, -0.021753674373030663, 0.028357189148664474, -0.025929469615221024, -0.031048741191625595, -0.030407842248678207, -0.07024914771318436, -0.058111339807510376, -0.06414449214935303, -0.04539281502366066, -0.031704116612672806, -0.02098776400089264, -0.004947096109390259, -0.061189088970422745, -0.06779486685991287, -0.04365837201476097, 0.018487948924303055, -0.00641678087413311, -0.0017410814762115479, -0.0055741239339113235, 0.003492206335067749, -0.01497383788228035, -0.005568794906139374, -0.026209210976958275, 0.029870014637708664, 0.02441483736038208, -0.024266261607408524, 0.0026449449360370636, -0.020992930978536606, -0.0072001684457063675, -0.031674813479185104, -0.002372991293668747, -0.01625625230371952, -0.0320938341319561, -0.024991914629936218, -0.05093885213136673, -0.03554559499025345, -0.05417820066213608, 0.0018401667475700378, -0.01631234399974346, 0.014258656650781631, 0.022906076163053513, -0.002080760896205902, -0.0184018574655056, 0.028618808835744858, -0.003132246434688568, -0.023460006341338158, 0.020301062613725662, 0.03509983792901039, 0.03364826366305351, 0.02935892716050148, 0.03239792212843895, -0.03536058962345123, 0.012264575809240341, 0.03096945211291313, -0.023141253739595413, 0.009468074887990952, -0.011290984228253365, -0.0025848783552646637, 0.016557034105062485, 0.0026459507644176483, -0.01278061605989933, -0.06677944958209991, -0.04652133211493492, -0.07811927050352097, -0.03631338104605675, -0.03317148983478546, -0.024387352168560028, 0.009881898760795593, 0.0008787885308265686, 0.020301494747400284, 0.015278689563274384, 0.0017456039786338806, 0.0054494477808475494, 0.026097912341356277, -0.03358248993754387, -0.01222158782184124, 0.02304460108280182, -0.027916939929127693, 0.01706746220588684, 0.023731045424938202, 0.011476203799247742, -0.023395266383886337, -0.020005907863378525, 0.008257407695055008, -0.015935281291604042, 0.014042098075151443, 0.01025378331542015, 0.006467361003160477, -0.02771807089447975, -0.09449417144060135, -0.09433691203594208, -0.03625538945198059, -0.011989807710051537, -0.034062813967466354, -0.011931614950299263, 0.027171973139047623, -0.005033569410443306, 0.01743583381175995, 0.020813439041376114, -0.010948292911052704, 0.018540073186159134, 0.01102202758193016, -0.0228238794952631, -0.007198743522167206, 0.021662626415491104, 0.013890299946069717, 0.004969298839569092, -0.004382222890853882, -0.025151506066322327, -0.0129106305539608, 0.023154228925704956, -0.0019349083304405212, -0.02140778861939907, 0.004741143435239792, -0.029439594596624374, -0.004408873617649078, -0.0014626570045948029, -0.03376513347029686, -0.024014882743358612, -0.024201564490795135, -0.02483271434903145, 0.029123451560735703, 0.013905487954616547, -0.025260135531425476, -0.015223810449242592, 0.026236888021230698, 0.031179893761873245, 0.003491051495075226, 0.0004766210913658142, -0.02718685008585453, 0.021160602569580078, -0.010029563680291176], [0.0033668801188468933, -0.00727260485291481, 0.012357201427221298, 0.008330143988132477, -0.008231669664382935, -0.005731148645281792, -0.00010591372847557068, -0.02830006554722786, -0.0021192356944084167, -0.02673909068107605, 0.027649585157632828, 0.01816956326365471, -0.021949296817183495, 0.5511859655380249, 0.5621618032455444, 0.03263399377465248, 0.007168430835008621, 0.016836125403642654, 0.005461420863866806, -0.020229928195476532, -0.03350045159459114, -0.01419399119913578, 0.027942966669797897, 0.01825934275984764, -0.011668145656585693, -0.022216517478227615, 0.0351693220436573, 0.003871168941259384, -0.030787989497184753, -0.012633217498660088, 0.002455431967973709, -0.003414236009120941, -0.013810627162456512, 0.010582447052001953, 0.257156640291214, 0.296642005443573, 0.514737606048584, 0.16313232481479645, 0.5422688722610474, 0.836342990398407, 0.7184138894081116, 0.31171977519989014, -0.32581791281700134, -0.14728066325187683, 0.6815609335899353, 1.0553439855575562, 0.8935773372650146, 0.3159615099430084, 0.11815348267555237, 0.9277387857437134, 1.0826694965362549, 0.2958619296550751, 0.03122926875948906, -0.00837753526866436, -0.023014849051833153, 0.020894218236207962, -0.025412747636437416, 0.03389950469136238, 0.02852823957800865, 0.015316251665353775, 0.2583155632019043, 0.026537593454122543, 0.32582566142082214, 0.6219835877418518, 1.7233811616897583, 1.7416859865188599, 0.8518256545066833, 0.7534616589546204, 0.34943515062332153, -0.14602814614772797, 1.130692481994629, -0.20088332891464233, -0.13913081586360931, -0.3938966393470764, 0.49277621507644653, 0.2611396908760071, -0.027810117229819298, -0.27576661109924316, 0.6432514786720276, 0.028830282390117645, -0.18890263140201569, -0.34000125527381897, -0.033393412828445435, -0.009321341291069984, 0.029562916606664658, 0.0035125985741615295, -0.07997164875268936, -0.019311487674713135, -0.008950276300311089, -0.5506629347801208, 0.31004399061203003, -0.44728630781173706, 0.26944729685783386, 1.2101768255233765, 0.3336535692214966, 0.30992746353149414, 0.00745484558865428, -0.24351613223552704, -0.25593459606170654, -0.7757749557495117, -0.42096009850502014, -0.1048845425248146, -0.2670126259326935, -1.027567744255066, -0.6873394250869751, 0.4969307482242584, 0.26689061522483826, 0.22806771099567413, 0.02931424230337143, -0.25853803753852844, 0.4219752848148346, -0.0054054223001003265, -0.003980875015258789, -0.02729160152375698, -0.21484367549419403, 0.022545788437128067, -0.10195787250995636, -0.37447211146354675, -0.18813037872314453, 0.636408805847168, 0.5056790113449097, 0.5864510536193848, 0.43406942486763, 0.2778085470199585, 0.16706295311450958, -0.033716894686222076, 0.3353497385978699, 0.01840759441256523, -0.3455958664417267, -0.03247646987438202, -0.7276982665061951, -1.0757216215133667, -0.3968081772327423, -1.183311939239502, -0.9750493764877319, -0.39594244956970215, -0.9279943704605103, -0.28386446833610535, -0.5681147575378418, 0.018667809665203094, 0.012787718325853348, 0.01592692732810974, 0.014947611838579178, -0.11117897182703018, -0.9407814741134644, -1.2297704219818115, -0.3276216983795166, 0.29123929142951965, 0.5352067351341248, 0.6012148261070251, 0.920514702796936, 0.5228115320205688, 0.2976961135864258, 0.28171998262405396, -0.3259609043598175, -0.8637340068817139, -0.527113139629364, -0.5235974788665771, -0.592551052570343, -1.2557566165924072, -0.6701900362968445, -0.5611778497695923, 0.06731071323156357, -0.02212686464190483, -0.11426177620887756, 1.0678642988204956, 1.0550038814544678, -0.01225993037223816, 0.006387438625097275, 0.015002910047769547, -0.343205064535141, -1.3276491165161133, -0.9683014154434204, -0.13298046588897705, -0.4873453974723816, 0.8110935688018799, 0.33614683151245117, 0.22719693183898926, -0.10173911601305008, 0.3463190495967865, 0.11923276633024216, -0.04008043557405472, -0.03675469756126404, -0.6870214343070984, -0.8673960566520691, -0.7975507974624634, -1.0313713550567627, -0.3892784118652344, -0.9101393222808838, -1.165713906288147, -0.7454830408096313, -0.275143027305603, 0.5468358397483826, 0.9513195157051086, 0.03785739094018936, 0.19852936267852783, -0.02742074429988861, -0.051789842545986176, 0.30084022879600525, -0.3015502393245697, 0.3871479332447052, 0.32287168502807617, -0.6670940518379211, -0.15114770829677582, 0.8233597874641418, 0.3424568772315979, 0.38901007175445557, 0.05296238511800766, -0.5883091688156128, -0.4970456659793854, -0.7648924589157104, -0.745246171951294, -0.23430833220481873, -0.7511252760887146, -0.7598694562911987, -0.5652276873588562, -0.5821344256401062, 0.3801079988479614, 0.34670859575271606, -0.8838352560997009, 0.5509019494056702, 1.5240639448165894, -0.2571321725845337, -0.6335123181343079, 0.03194334730505943, -0.9524938464164734, -0.2615269720554352, 0.02398805133998394, -0.10908312350511551, 0.486538290977478, 0.44650959968566895, 0.41496121883392334, 0.3918609023094177, 0.603682279586792, 0.5731417536735535, -0.04329703375697136, -0.38620278239250183, -0.8697647452354431, -0.8348528146743774, -0.027052031829953194, -0.08125896006822586, -0.22113148868083954, -0.31435278058052063, -0.17560796439647675, 0.12487079203128815, 0.16403800249099731, 0.014161037281155586, -0.3682946264743805, -0.20282889902591705, 0.17818258702754974, 0.5733364820480347, 0.18204891681671143, -0.3879619538784027, -0.36849910020828247, -0.7033761143684387, -0.14195770025253296, -0.044608164578676224, 0.0944051668047905, -0.03448782488703728, 0.25672489404678345, 0.3465946912765503, 0.11514231562614441, 0.5652466416358948, -0.03204943984746933, -0.8219523429870605, -1.1138349771499634, -1.0693426132202148, -0.5507670640945435, -0.12071456015110016, -0.004393459763377905, 0.3384333550930023, 0.3589174747467041, 0.6570445895195007, 0.4108738601207733, 0.09112882614135742, -0.18783871829509735, 0.8941770195960999, 0.9436622858047485, -0.5322718620300293, -0.8280817270278931, -0.36358511447906494, -0.16084857285022736, -0.13861598074436188, 0.18141989409923553, 0.6478836536407471, 0.9305149912834167, 0.15114818513393402, 0.010632130317389965, -0.27448591589927673, 0.4101641774177551, 0.12910383939743042, -0.08416350185871124, -0.679395318031311, -1.3774620294570923, -0.9145091772079468, 0.07003799825906754, 0.18842710554599762, 0.2682590186595917, 0.4429883360862732, 0.4459569454193115, -0.005576991941779852, 0.23934975266456604, -0.479789674282074, -0.15662306547164917, 1.4016231298446655, -0.11654892563819885, -0.763732373714447, 0.2720192074775696, -0.030361853539943695, -0.011141743510961533, -1.5327949523925781, -0.7626715302467346, 0.6181986331939697, 0.12721732258796692, -0.057815417647361755, -0.12049878388643265, 0.6459228992462158, 0.7810562252998352, 0.31555068492889404, 0.1404113918542862, -0.4635104238986969, -1.1181824207305908, -0.5859054923057556, -0.3271063268184662, -0.21205107867717743, 0.08063828945159912, 0.4902210533618927, 0.42023685574531555, -0.11692316085100174, 0.17113745212554932, 0.04428664222359657, 0.5541960000991821, 0.7270929217338562, 0.4396880567073822, 0.31338196992874146, 0.5414494872093201, -0.002027251524850726, -0.41762062907218933, -0.8466858863830566, -0.7541155815124512, 0.23047767579555511, -0.1042562946677208, -0.3982318639755249, 0.1666523814201355, 0.2734639346599579, 0.2524527311325073, -0.23657530546188354, 0.1491883546113968, -0.36270445585250854, -1.2365459203720093, -0.7469759583473206, -0.7380640506744385, -0.3918905258178711, 0.248555988073349, 0.19208651781082153, 0.21414817869663239, -0.3596813380718231, -0.2224789261817932, 0.25281351804733276, 0.8828006386756897, 1.7018153667449951, 0.7441935539245605, -0.39637401700019836, -0.2651875913143158, -0.00039654970169067383, 0.02725968137383461, -1.1857588291168213, -1.0701911449432373, -0.23525623977184296, -0.5891901850700378, -0.5300942063331604, -0.7450003027915955, -0.19132374227046967, 0.2587752640247345, 0.08704093843698502, 0.29795753955841064, 0.013932629488408566, -0.34085044264793396, -0.4463961124420166, -0.17429576814174652, -0.172486811876297, -0.08113206923007965, -0.09301969408988953, 0.5567741990089417, 0.007095942739397287, -0.1274930238723755, -0.2016136795282364, 0.4212363660335541, 0.8298199772834778, -0.050447553396224976, 1.0757827758789062, 1.3748154640197754, 0.017071682959794998, -0.02278382144868374, -0.09831783920526505, -1.629206895828247, -1.068924903869629, -0.7052084803581238, -0.26572540402412415, -0.838813841342926, -0.1905980110168457, -0.19199234247207642, 0.5343065857887268, 0.8667516708374023, 0.5479593276977539, 0.15136650204658508, -0.11478611826896667, -0.22400927543640137, -0.006323407404124737, -0.12145483493804932, 0.21992014348506927, -0.17234404385089874, -0.27325865626335144, 0.14785002171993256, 0.256319135427475, 0.24212586879730225, 0.7414888739585876, 1.0485838651657104, 1.2823755741119385, -0.00459858775138855, -0.0048110876232385635, -0.016403164714574814, -0.104651540517807, -0.370061993598938, -0.587746262550354, -0.28926801681518555, -0.14616583287715912, -0.20229355990886688, -0.23928463459014893, -0.4726790487766266, -0.1624671369791031, 0.40918678045272827, 0.6431055665016174, 0.37116214632987976, -0.1678963601589203, -0.2053270936012268, 0.25514012575149536, 0.21458040177822113, -0.07196692377328873, -0.118405282497406, -0.0013383806217461824, -0.23984792828559875, -0.5853230953216553, 0.42589837312698364, 0.595851719379425, 1.7001562118530273, 0.37097328901290894, 0.43491286039352417, 0.032379087060689926, 0.01478460431098938, -0.002561581088230014, -0.3490915298461914, -0.6235707998275757, -0.038716547191143036, 0.4648342430591583, -0.09399264305830002, -0.38530147075653076, -1.2242769002914429, -0.09878835827112198, -0.19520996510982513, 0.3426305055618286, 0.3144438862800598, 0.3764911890029907, -0.09973263740539551, 0.5071754455566406, 0.1653052270412445, -0.4113798141479492, 0.11248749494552612, -0.29351383447647095, -0.37228137254714966, -0.5295366644859314, -0.005080866627395153, -0.05099465698003769, 1.5694974660873413, 0.5412484407424927, 0.6680182814598083, -0.014741400256752968, -0.03324573487043381, 0.026456404477357864, -0.21484524011611938, -0.5988408923149109, -0.09945721179246902, 0.009068088605999947, -0.15488013625144958, -0.9148405194282532, -0.4803960621356964, -0.1392352283000946, 0.49633872509002686, 0.7758578062057495, 0.7958858013153076, -0.011711121536791325, 0.1660040318965912, 0.48095837235450745, -0.2572505474090576, -0.15410606563091278, -0.315143883228302, -0.2370612472295761, -0.9517248868942261, -0.17334723472595215, 0.19349724054336548, 0.7761059999465942, 1.0071548223495483, -0.09917747229337692, -0.024397727102041245, 0.02583359181880951, -0.02048998698592186, -0.2424471378326416, 0.20471882820129395, -0.17169399559497833, -0.2686781883239746, 0.3682389557361603, 0.19936196506023407, -0.1561656892299652, -1.0467878580093384, 0.05837720260024071, 0.1748485118150711, 0.9315637350082397, 0.7846658229827881, 0.15216870605945587, -0.2079976350069046, -0.4409538507461548, -0.6175118088722229, -0.4920326769351959, -0.23681747913360596, -0.3706556558609009, -0.3609805107116699, -0.03635252267122269, 0.4634104073047638, 0.34998029470443726, 1.2415226697921753, 0.16322021186351776, -0.23436109721660614, 0.01656593754887581, -0.029373446479439735, -0.5329280495643616, 0.11771929264068604, -0.3755623698234558, -0.6951386332511902, 0.11360054463148117, -0.09161807596683502, -0.3871367275714874, -0.6645956039428711, 0.4299289286136627, 0.4258197247982025, 1.22891104221344, 0.9514645338058472, 0.5517988801002502, -0.15881943702697754, -0.5483400225639343, -0.4465416371822357, 0.15818798542022705, -0.5961431264877319, -0.005946013610810041, -0.13610780239105225, -0.2592623233795166, 1.1989507675170898, -0.05424995720386505, 0.46734583377838135, 1.1108195781707764, 0.34842464327812195, 0.02338780090212822, -0.06904278695583344, -0.22881819307804108, 0.11793707311153412, -0.5124311447143555, -0.27775537967681885, -0.54804927110672, 0.006567144300788641, -0.24838869273662567, -0.11315713077783585, 1.1154361963272095, 0.8466214537620544, 1.3660893440246582, 0.6164815425872803, 0.08498288691043854, -0.234628364443779, -0.3199779689311981, -0.16219201683998108, 0.24787388741970062, -0.181683748960495, -0.3491712808609009, 0.35232269763946533, 0.3470025360584259, -0.0738111361861229, -0.01937115751206875, 0.2588685154914856, 0.7621172070503235, 0.029826339334249496, 0.030689965933561325, 0.3192882835865021, 0.20680397748947144, 0.3161190152168274, -0.4113641083240509, -0.5078533291816711, -0.8988531231880188, 0.021540489047765732, -0.1754959374666214, 0.4919029176235199, 0.4217643141746521, -0.00572621775791049, 0.4410436451435089, 0.4353847801685333, 0.3457069993019104, 0.06415055692195892, -0.16868820786476135, 0.4279311001300812, 0.2904597222805023, -0.08436436206102371, -0.3847886025905609, 0.6287838220596313, 0.42161592841148376, 0.7420246005058289, -0.48242104053497314, -0.47215837240219116, 1.0498723983764648, -0.005391793325543404, 0.017191827297210693, -0.01426423154771328, 0.26689133048057556, 0.6607326865196228, -0.034363940358161926, -0.4275681674480438, -0.3823051154613495, -0.2041950821876526, -0.1838977336883545, -0.073179230093956, 0.13585694134235382, 0.13054834306240082, 0.5836153030395508, 0.12880951166152954, -0.04717929661273956, 0.06224314495921135, 0.24656690657138824, -0.0750637799501419, -0.1565646529197693, -0.3777220547199249, -0.43981996178627014, 0.3923157751560211, 0.4869806170463562, -0.6174242496490479, -1.1708335876464844, -0.6623098254203796, -0.1320328712463379, 0.005947280675172806, 0.016399726271629333, 0.01726093515753746, -0.2706654965877533, -0.5601299405097961, -0.5803542137145996, -0.6810109615325928, -0.9795616269111633, -1.1453180313110352, 0.24252736568450928, -0.614601731300354, -0.2620065212249756, -0.19598345458507538, 0.28774547576904297, 0.32578709721565247, 0.3484407365322113, 0.33703479170799255, 0.447771281003952, 0.6188461780548096, -0.3643262982368469, -0.07249785214662552, -0.2849777936935425, 1.1928468942642212, 0.5050962567329407, 0.33761823177337646, -0.7906529903411865, 0.6209440231323242, -0.25510647892951965, 0.03542988374829292, 0.02962106093764305, -0.021222278475761414, 0.01583685725927353, -0.7303272485733032, -1.095860481262207, -1.4773509502410889, -1.3550090789794922, -2.352851152420044, -1.4006340503692627, -1.6108498573303223, -1.3431648015975952, -0.13301607966423035, 0.286106139421463, -0.07339203357696533, -0.06125478073954582, 0.3570907711982727, 0.5388111472129822, -0.5470224022865295, -0.2314630150794983, -0.5320736765861511, -0.33887428045272827, -0.6976718306541443, 0.5053616166114807, 0.16655975580215454, 0.4033929705619812, 0.26237061619758606, 0.003188367933034897, -0.02632533386349678, -0.026937294751405716, -0.007654858753085136, 0.01408274844288826, -0.0353408008813858, -0.2951660454273224, -0.23054622113704681, -0.8082212209701538, -1.3334001302719116, -1.5322027206420898, -1.9991008043289185, -0.9993877410888672, -0.1687668263912201, -1.072878360748291, -1.2117499113082886, -0.15394774079322815, 0.1796656847000122, -0.00041299121221527457, -0.2751223146915436, -0.3736487627029419, -0.6268002986907959, -0.34590429067611694, -1.1652519702911377, -0.7494543790817261, -0.7187327146530151, -0.16096624732017517, -0.42438438534736633, 0.019498299807310104, 0.00322878360748291, -0.004356950521469116, -0.003894362598657608, -0.014486487954854965, 0.007263530045747757, -0.30007123947143555, 0.16664226353168488, -0.34717488288879395, -0.287911593914032, 0.4209735691547394, -1.151821255683899, -1.7182681560516357, -0.1649133414030075, 0.42360612750053406, -0.22540441155433655, -0.9329022169113159, -1.4202051162719727, -1.563834309577942, -0.8882178664207458, -0.8318499326705933, -1.4324108362197876, -0.5018587708473206, -0.6484286785125732, 0.061150286346673965, 0.1274193376302719, -0.014366073533892632, -0.017663683742284775, -0.029858535155653954, 0.013774678111076355, -0.00513581745326519, 0.003563772886991501, 0.034832846373319626, 0.005667414516210556, 0.027833055704832077, 0.005766957998275757, -0.20175397396087646, -0.3590047359466553, -0.8084173202514648, -0.9355264902114868, -1.5085172653198242, -0.3051827549934387, -0.3931070566177368, -0.09699102491140366, -0.394041508436203, -0.34517017006874084, -0.3756203055381775, -0.37439626455307007, -0.7176169157028198, 0.024259988218545914, -0.1418079137802124, -0.21142609417438507, -0.17082960903644562, -0.020541399717330933, 0.03565869852900505, -0.022345462813973427, 0.01758608967065811, -0.011001013219356537], [-0.029356054961681366, -0.034821610897779465, 0.015511751174926758, -0.01089128851890564, -0.0229826457798481, 0.03524492308497429, 0.020946446806192398, 0.023515205830335617, -0.016046192497015, -0.0017751231789588928, 0.007901586592197418, -0.0041098929941654205, 0.23152433335781097, 0.2056770771741867, -0.007980704307556152, -0.0037373527884483337, -0.014056069776415825, -0.02448631264269352, -0.004008430987596512, -0.012777533382177353, -0.011286092922091484, -0.015612628310918808, 0.016537874937057495, -0.005804084241390228, 0.027510348707437515, 0.010466951876878738, -0.011886635795235634, 0.035535942763090134, -0.011158376932144165, -0.0301189087331295, 0.023999705910682678, -0.020342763513326645, 0.024387706071138382, 0.027370620518922806, -0.0114509928971529, -0.014126071706414223, 0.2248375564813614, 0.3030792772769928, 0.5440182089805603, 0.6568890810012817, 0.36807987093925476, 0.2820340394973755, 0.33496952056884766, 0.9042713642120361, -0.41462141275405884, -0.1887461394071579, 0.7573907971382141, 0.4176119267940521, 0.35819748044013977, 0.7303763628005981, 0.6004124879837036, 0.2655002772808075, -0.029751166701316833, 0.01480109989643097, 0.0018647313117980957, 0.03152596578001976, -0.019936494529247284, -0.01113126240670681, 0.011580109596252441, -0.03401949629187584, 0.23002146184444427, -0.014588505029678345, 0.6466760635375977, 0.24094881117343903, -0.25021031498908997, -0.027080079540610313, -0.011337384581565857, 0.31864088773727417, 1.1616426706314087, 0.8352622389793396, 0.25913867354393005, 0.7241215705871582, 1.238201379776001, 1.3048509359359741, 0.9908835887908936, -0.06939292699098587, 0.6541131138801575, 0.40870144963264465, 0.7603248357772827, 0.5193906426429749, 0.09196264296770096, -0.16926570236682892, -0.005367619916796684, -0.01617702841758728, 0.022090040147304535, -0.017490435391664505, 0.09502988308668137, 0.016617245972156525, -0.014855576679110527, -0.12626855075359344, 0.2315579652786255, -0.3836725354194641, -0.9612277150154114, 0.312570184469223, 0.07562088221311569, -0.7574657797813416, -0.472702294588089, -0.7033891081809998, -0.7021834850311279, -1.085702896118164, -0.5581653714179993, -0.37258052825927734, -0.0138162262737751, 0.04465100169181824, -0.27958378195762634, 0.2963051497936249, 0.4863676428794861, 1.0130993127822876, -0.14535169303417206, -0.7138077616691589, -0.1917620152235031, -0.034406986087560654, 0.0006696321070194244, 0.019146375358104706, 0.5420476794242859, -0.006148576736450195, -0.5122115612030029, -0.5408507585525513, -0.43126219511032104, -0.4332996606826782, -1.421519160270691, 0.29810625314712524, -0.19955706596374512, -0.6098998785018921, -0.5465635657310486, -0.06313299387693405, -0.037984203547239304, -0.04622209072113037, 0.19578582048416138, 0.41243410110473633, 0.10093475878238678, 0.2703060805797577, 0.6893759965896606, 0.540840744972229, 0.2903206944465637, 0.6934188604354858, -0.4096153974533081, 0.0730719119310379, 0.07252805680036545, 0.011354334652423859, -0.0328306183218956, 0.014636144042015076, -0.025667160749435425, -0.1438554972410202, -0.6576298475265503, -0.5852419137954712, -0.5592613816261292, -0.18933673202991486, -0.4268173277378082, -0.1610996425151825, -0.3535102307796478, 0.030067505314946175, 0.08620097488164902, 0.6569796204566956, 0.2422768920660019, -0.16685475409030914, 0.09158045053482056, 0.007563068065792322, 0.20680157840251923, 0.4568769931793213, 0.5293633341789246, 0.6341732144355774, 0.3101184368133545, 0.209808349609375, 0.5459665656089783, -0.1899762600660324, 0.42274942994117737, -0.029008811339735985, 0.001679740846157074, 0.004667364060878754, 0.4164820909500122, -0.5003741979598999, -1.5289372205734253, -0.7565715909004211, -0.9858562350273132, -0.08842449635267258, -0.49442258477211, -0.2431887984275818, -0.4345545768737793, -0.011772844940423965, 0.5515885353088379, 0.32259196043014526, 0.243187814950943, 0.05234302580356598, -0.45851078629493713, -0.3246600329875946, -0.3865632116794586, 0.23707714676856995, 0.26283058524131775, 0.12328324466943741, 0.10795329511165619, 0.8915337324142456, 0.8400055766105652, 1.3243927955627441, 0.6472572088241577, 0.9575734734535217, -0.023404594510793686, 0.04654725268483162, -0.6240034699440002, -1.4037363529205322, -1.2884948253631592, -0.19872985780239105, -0.8996902108192444, -0.6567001342773438, -0.3273029625415802, -0.08300036191940308, 0.03955579549074173, 0.05899641662836075, 0.23309500515460968, 0.17700444161891937, 0.06451023370027542, 0.02374640479683876, -0.3765895962715149, -0.5945095419883728, -0.11679133027791977, -0.3012455105781555, -0.1035352572798729, 0.6503995656967163, 1.0802323818206787, 0.6446343660354614, -0.3443971574306488, 0.3005158007144928, -0.03715554624795914, -0.3272343873977661, -0.013880010694265366, -0.4521788954734802, -1.1807819604873657, -0.48737478256225586, -0.039455804973840714, 0.3069213628768921, -0.1293938159942627, 0.16656197607517242, -0.14955273270606995, 0.3344343602657318, 0.28634169697761536, 0.35425475239753723, 0.677531898021698, 0.7482033371925354, 0.09272237867116928, -0.1708117127418518, -0.49968740344047546, -0.23952092230319977, -0.37270331382751465, -0.10688581317663193, -0.3632661998271942, -0.3646213114261627, -0.13882049918174744, -0.1401960849761963, 0.556813657283783, 0.35217180848121643, 1.5700254440307617, 0.6649107933044434, 0.09198258817195892, -0.057923708111047745, -0.18096551299095154, 0.01000863965600729, -1.2336976528167725, -0.5812383890151978, -0.2341381311416626, -0.0012090838281437755, 0.2415943294763565, 0.33586931228637695, 0.1492147147655487, 0.5109634399414062, -0.04310458153486252, 0.03196771442890167, -0.07759154587984085, -0.7257295250892639, -0.3880617618560791, -0.5725807547569275, -0.4113224148750305, -0.5031172037124634, -0.5018351078033447, -0.24799372255802155, 0.2720956802368164, 0.44593295454978943, 0.9815473556518555, 0.5074110627174377, 1.3585118055343628, -0.2564231753349304, 0.051691826432943344, 0.056357987225055695, -0.8817191123962402, -0.1327422857284546, -0.19833721220493317, -0.028538677841424942, 0.05985967442393303, 0.0013774248072877526, 0.24355947971343994, 0.5117581486701965, 0.24100953340530396, 0.28224197030067444, 0.36879029870033264, 0.4613189995288849, 0.11881200969219208, -0.3914082646369934, -0.6984538435935974, -0.6332291960716248, -0.326500803232193, -0.4064592123031616, -0.6622516512870789, -0.10915888845920563, 0.05223073437809944, 0.17294816672801971, 1.0510520935058594, -0.15716494619846344, -0.4407748878002167, 1.164077639579773, 0.01726570352911949, -0.1876164674758911, -0.7554883360862732, -1.934136152267456, 0.01771659217774868, 0.911931037902832, 0.767642080783844, 0.9288450479507446, 0.48025065660476685, 0.4158112406730652, 0.39702877402305603, 0.12242841720581055, 0.385040819644928, 0.3619537949562073, 0.4381566345691681, -0.16991066932678223, -0.044902700930833817, -0.5144215226173401, -0.21807053685188293, -0.4650416076183319, -0.38217630982398987, -0.6426383256912231, -0.06619207561016083, 0.14125248789787292, 0.5690268874168396, -0.04798470064997673, 0.5714582800865173, -0.08841640502214432, -0.01786700449883938, -0.15230406820774078, -0.8365085124969482, -1.024928331375122, 0.6685695052146912, 0.33408305048942566, 0.7874296307563782, 0.31833407282829285, 0.5697833895683289, -0.08175670355558395, -0.3529738783836365, 0.058111097663640976, 0.3030638098716736, 0.40980327129364014, 0.38050898909568787, 0.4608759582042694, 0.44363513588905334, -0.22714191675186157, -0.3184945583343506, 0.3732932209968567, 0.09158974140882492, 0.023352129384875298, 0.21590399742126465, 0.6169612407684326, 1.296374797821045, 0.2231442630290985, 0.28726160526275635, -0.27661022543907166, -0.028242627158761024, 0.007696118205785751, -0.18731804192066193, -1.4008166790008545, -0.009911032393574715, -0.6196839213371277, -0.16636726260185242, -0.6724732518196106, -0.23601824045181274, 0.3022158741950989, -0.4983070492744446, 0.0124614043161273, -0.19811967015266418, 0.3364720642566681, 0.793459951877594, 0.8565410375595093, 0.4327840805053711, -0.08469976484775543, -0.3552987277507782, -0.1165570542216301, 0.600662887096405, 0.43122491240501404, 0.11211350560188293, 0.04860042780637741, 0.21161383390426636, 0.03254246711730957, 0.7681861519813538, 0.9220473766326904, 0.035700783133506775, -0.03413945063948631, -0.15055380761623383, -0.08954278379678726, -0.9958173036575317, -0.17127308249473572, -0.2843918204307556, -1.0765925645828247, -0.3914051651954651, -0.6498903632164001, -0.4453262686729431, -0.2362220287322998, 0.019902799278497696, 0.5316144824028015, 0.9543967247009277, 0.916164219379425, 0.585647702217102, -0.01909399777650833, -0.4507582187652588, 0.09465909004211426, -0.7714489102363586, 0.08759240806102753, 0.0432368740439415, -0.5661595463752747, 0.07969231903553009, 0.43588271737098694, 0.18698905408382416, 0.03401664271950722, 0.003081023693084717, -0.5305063128471375, -0.21383585035800934, -0.593379557132721, -1.1374716758728027, -1.1806782484054565, -1.0215280055999756, -0.8219751119613647, -0.7489509582519531, -0.9551140666007996, -0.8217592835426331, -0.014747077599167824, 0.1243358626961708, 1.0234512090682983, 1.0967642068862915, 0.39781454205513, -0.051739830523729324, -0.11583514511585236, -0.18888415396213531, -0.5848207473754883, -0.5502718091011047, -0.5358060002326965, -0.9906530380249023, -0.6560442447662354, -1.1762523651123047, 0.8094382286071777, -0.3031388819217682, 0.15674640238285065, 0.025519371032714844, -0.47188159823417664, -0.14398930966854095, -0.16365085542201996, -1.335995078086853, -1.2402299642562866, -0.5111768841743469, -1.005563735961914, -0.6855484843254089, 0.028458021581172943, 0.29201367497444153, 0.021086402237415314, 0.338285893201828, 0.2619616985321045, 0.38829436898231506, 0.31137987971305847, -0.3667880594730377, -0.901228666305542, -0.8059939742088318, -1.170776128768921, -0.70792555809021, -0.8102933764457703, -0.4387679100036621, -0.4716479778289795, -0.06558334827423096, 0.10102064907550812, -0.08022604882717133, -0.6400414109230042, 0.006362922489643097, 0.012648750096559525, -0.06731641292572021, 0.004831133875995874, -0.7686846256256104, -0.6508448719978333, -1.0667102336883545, -0.5944300293922424, -0.253226101398468, 0.0724320337176323, 0.32753604650497437, 0.5614933967590332, 0.34110864996910095, 0.1788657158613205, 0.07559923827648163, -0.8065111637115479, -0.17646493017673492, -0.28422844409942627, -0.7859543561935425, -0.8100559711456299, -0.655559241771698, -0.8488852381706238, -0.19059403240680695, -0.43522024154663086, 0.042552974075078964, -1.1385680437088013, 0.4618222415447235, -0.012927340343594551, 0.0005796179175376892, 0.049658529460430145, -0.3231183588504791, -0.05619656294584274, -0.7173453569412231, -0.47248339653015137, -0.24111178517341614, -0.4211748242378235, -0.19629821181297302, 0.8531386852264404, 0.38621535897254944, 0.4389325976371765, 0.47180822491645813, 0.2802931070327759, 0.1122632771730423, -0.3738314211368561, -0.7440829277038574, -0.9443026185035706, -0.5830689668655396, -0.8169795274734497, -0.43445706367492676, -0.43041813373565674, -0.29561981558799744, -0.9187498092651367, -0.500957727432251, -0.5653653144836426, 0.24186263978481293, -0.4824778139591217, -0.018053974956274033, -0.0170579981058836, -0.3930004835128784, -0.6997039318084717, -1.3891855478286743, -0.5669707655906677, -0.22498899698257446, -0.04181697592139244, 0.15164852142333984, 0.4848879277706146, 0.6295524835586548, 0.3352016508579254, 0.40451568365097046, 0.37047186493873596, -0.0735955536365509, -0.6355646252632141, -0.8492633104324341, -0.785132884979248, -0.7412053346633911, -0.3774125576019287, -0.4274858832359314, -0.6682384014129639, 0.08128665387630463, -0.2035629153251648, -0.9112065434455872, -1.6422237157821655, 0.4879244565963745, -0.16127154231071472, -0.022257324308156967, -0.027506578713655472, -0.2455413043498993, -0.7805777788162231, -0.5064474940299988, -0.19652287662029266, 0.15351314842700958, 0.17656458914279938, 0.49581268429756165, 0.35921022295951843, 0.5242517590522766, 0.49340277910232544, 0.39288726449012756, 0.2814171314239502, -0.1411004513502121, -0.08137644082307816, -0.6862941980361938, -0.39290961623191833, -0.449632465839386, 0.017717130482196808, 0.19682729244232178, 0.26271364092826843, -0.1753971129655838, -0.49823808670043945, 0.15423807501792908, -0.5854885578155518, 0.5853157639503479, 0.012047767639160156, 0.011458471417427063, -0.009367572143673897, -0.1281556636095047, 0.19401563704013824, -0.4216558337211609, 0.2784632742404938, 0.005256315227597952, 0.007332027889788151, 0.17236648499965668, 0.9120567440986633, 0.39816832542419434, 0.2635565996170044, 0.4279771149158478, 0.3019903600215912, 0.4431549906730652, 0.35882768034935, -0.2628924250602722, 0.43864190578460693, -0.0516446977853775, 0.5589095950126648, -0.06691420078277588, 0.2089581936597824, 0.9331367015838623, 0.4411463141441345, -1.0749332904815674, -1.0560352802276611, -0.0790998786687851, -0.03254557400941849, 0.012520372867584229, 0.03359023109078407, -0.35419899225234985, -0.6719194054603577, -0.39703211188316345, 0.7074734568595886, -0.12609045207500458, 0.2588394284248352, -0.2806621789932251, -0.23868244886398315, 0.06885507702827454, 0.3085487484931946, 0.3566819727420807, 0.4989355206489563, 0.6183661818504333, 0.2797003388404846, -0.01838989183306694, -0.30378955602645874, -0.04028816893696785, 0.127579003572464, -0.06676395237445831, 0.6123924255371094, 0.47533655166625977, 0.12726223468780518, -0.27503302693367004, -0.13911162316799164, -0.3586130142211914, 0.008015383034944534, 0.025031063705682755, -0.022159487009048462, 0.09350044280290604, -1.5874650478363037, -0.39189812541007996, -0.5669522881507874, -0.11137259006500244, -0.009773480705916882, 0.25824737548828125, -0.08735814690589905, -0.5228751301765442, -0.09524311870336533, 0.18471422791481018, 0.6353442072868347, 0.570996105670929, 0.5569704174995422, 0.4567882716655731, 0.700849175453186, 0.30774161219596863, 0.9467723369598389, -0.08943453431129456, -0.5398311614990234, 0.0395350307226181, 0.5558162927627563, 0.9604931473731995, 0.08919350057840347, -0.27816030383110046, 0.01719709485769272, -0.015157908201217651, -0.012806981801986694, 0.018894758075475693, -1.6933969259262085, -1.6786624193191528, -1.125720739364624, -1.1956641674041748, -0.4793599247932434, -0.40155017375946045, -0.051554273813962936, -0.22488048672676086, 0.26573213934898376, -0.09912017732858658, 0.0407937690615654, 0.3391086459159851, 0.2910813093185425, 0.09072168171405792, -0.5885583162307739, -0.31188684701919556, 0.23567262291908264, 0.4910478889942169, -0.3008771240711212, 0.24991711974143982, -0.09130670875310898, 0.3915942907333374, 0.13679374754428864, -0.012972032651305199, 0.031192723661661148, -0.006154593080282211, 0.011861324310302734, 0.01180543377995491, -0.10428784042596817, -0.6753559112548828, -1.5830403566360474, -0.8934107422828674, -0.5441487431526184, -1.2664178609848022, -0.22452832758426666, -0.16718538105487823, 0.44112908840179443, -0.2820989489555359, -0.03022829443216324, 0.36197593808174133, 0.09102571755647659, 0.06260401755571365, 1.1825896501541138, 1.2495734691619873, -0.07722795009613037, -0.08964753150939941, -0.3405265808105469, -0.8193968534469604, -0.30375412106513977, -0.3110053241252899, -0.3736671209335327, 0.005237836390733719, -0.006730357185006142, 0.027305256575345993, 0.002503279596567154, -0.02847711741924286, -0.005818244069814682, -0.16623732447624207, -0.774695098400116, -0.917946457862854, -0.5004985928535461, -0.39089667797088623, 0.1440196931362152, 